#include <ap_fixed.h>

ap_fixed<32, 10>  unscaled_weight[1140] = {
		                               -0.10424178, -0.030799653, 0.052530228, 0.01498217, -0.08777783, 0.025801498, 0.11248444, 0.015838418, -0.10657978, 0.054560497,
		                               -0.096792182, -0.063336833, 0.22215036, -0.13044014, -0.13121741, 0.042681942, 0.04461257, 0.0083943017, -0.02597217, -0.015612995,
		                               0.025213573, -0.19945928, -0.012638474, 0.017567221, -0.041607026, 0.028909871, 0.013815979, -0.18875899, 0.037717951, 0.0052123909,
		                               -0.10388213, -0.040843923, 0.017866964, 0.32381276, -0.079073147, -0.092261002, -0.034176671, -0.11035824, 0.028015803, 0.0080648577,
		                               0.029564284, 0.14982184, -0.10046884, 0.30592635, 0.11339069, -0.067027377, -0.017270554, 0.09195028, -0.043087571, 0.043215026,
		                               -0.13695739, 0.45184831, -0.3744449, -0.1357379, -0.26915265, -0.15627258, 0.021025576, 0.080144839, -0.3899839, -0.001001985,
		                               0.17080849, -0.20484804, -0.081215569, -0.051684347, -0.091409369, 0.13704719, -0.055279554, 0.14512809, 0.15324917, 0.03818066,
		                               0.018435728, 0.066502897, 0.0080825785, -0.10729699, -0.044690298, 0.41662586, -0.36708641, -0.17891572, -0.055868126, -0.52809688,
		                               0.10674618, -0.012980974, -0.21874192, 0.10954837, 0.1239853, -0.12541848, 0.031939519, -0.045297747, -0.084624299, 0.22483127,
		                               0.17875676, 0.35939431, 0.36618832, 0.030692415, 0.0058108014, 0.017058185, 0.19668585, 0.13317525, -0.066234752, 0.041848381,
		                               -0.39862336, -0.12138254, 0.12728411, -0.49182662, -0.15380737, 0.24077547, -0.21553621, 0.0020627732, 0.001682487, -0.10767136,
		                               0.051010792, 0.042647423, -0.10384537, 0.16939386, 0.020177305, 0.36305897, 0.33741547, -0.013177408, 0.0073323055, 0.042962792,
		                               0.085937996, 0.018649058, 0.0064078744, 0.15684093, -0.28826107, -0.13535581, 0.0016327419, -0.34558611, -0.15628352, 0.1047957,
		                               -0.032836862, 0.129256, 0.15642429, 0.047116923, 0.025345962, -0.072894109, -0.11091306, 0.041888474, -0.003251662, 0.056428998,
		                               0.21230238, 0.076059055, -0.10418947, -0.035335618, 0.075362492, 0.14752043, -0.068933169, 0.04924544, -0.21138563, 0.0052500211,
		                               0.01761882, -0.241272, 0.077864586, -0.040351334, -0.12616877, 0.26568668, -0.041172638, 0.23739536, 0.2946955, 0.086851232,
		                               0.10945518, 0.1247118, 0.001948655, 0.069109968, 0.13687011, 0.1478465, -0.083273338, -0.04160348, 0.20707786, -0.072990117,
		                               0.062953996, 0.18463264, -0.19603747, 0.093677506, 0.10491748, -0.11330068, -0.028917951, -0.056372268, -0.024719125, -0.025568056,
		                               0.095593305, -0.038912215, 0.054505323, 0.1670544, -0.0083752187, 0.053196939, 0.1131064, -0.016921367, 0.11867428, 0.19141259,
		                               -0.12859225, 0.037577283, 0.098735245, 0.072110435, 0.041845263, 0.058757991, 0.045899399, 0.046709432, -0.096907402, -0.066728894,
		                               -0.0811381, -0.0318341, -0.060904224, -0.021491762, -0.042872942, -0.085334983, -0.10062296, -0.01771787, -0.050638273, 0.023731474,
		                               -0.083423223, -0.10908282, 0.043965935, -0.065866057, -0.062824533, 0.04489417, 0.06840845, 0.043040265, -0.02741104, 0.044985119,
		                               0.05081166, -0.023024972, 0.032355264, 0.02384525, 0.032608411, -0.039003845, -0.10350385, -0.099938661, 0.075321489, 0.01658338,
		                               0.0667699, 0.053614055, -0.011364226, 0.22224905, -0.29988858, -0.29861364, 0.16248087, -0.10083432, -0.14320074, 0.15533933,
		                               -0.12903535, -0.11969208, -0.093211974, -0.097208206, -0.11264403, 0.055261784, -0.066350637, -0.010113344, 0.12569381, 0.031857147,
		                               -0.063750059, 0.053916969, -0.20430278, -0.36390022, 0.023591976, 0.010887413, -0.094098104, 0.25287964, -0.082363307, -0.093005734,
		                               0.21988743, -0.029877318, -0.07497436, 0.07029678, -0.06888239, -0.04030131, 0.071696295, -0.11106632, -0.14877861, 0.13301421,
		                               0.088271762, 0.068115721, 0.32737983, 0.07543899, -0.048548442, 0.19627291, 0.087748043, -0.2332948, 0.084629407, 0.078899767,
		                               -0.047386713, 0.33632957, -0.096265378, -0.09748509, 0.47447526, -0.092484891, -0.11413053, 0.072412073, -0.067586541, -0.11501134,
		                               -0.067692929, -0.088094099, -0.12323767, 0.13355564, -0.1191371, -0.20121845, 0.0055042045, 0.077170213, -0.18024464, 0.008869636,
		                               0.081313103, -0.34899671, 0.036946818, 0.12039827, -0.060428574, 0.22628864, -0.034187301, -0.071193356, 0.41476534, -0.051363398,
		                               -0.13060285, 0.089193705, 0.032455509, -0.03294063, -0.0031794863, -0.090912517, -0.04049469, -0.051920975, -0.1019959, -0.2180993,
		                               -0.16502799, 0.044395624, -0.16472838, 0.10359634, -0.24006999, -0.56414068, 0.027506927, 0.014760055, -0.1830362, 0.056372326,
		                               0.034775776, -0.09254162, 0.23131311, -0.011047559, -0.078451604, -0.0048997031, -0.039434785, -0.11149429, -0.11016855, 0.11193552,
		                               0.041601508, -0.069069169, 0.18013331, 0.009784838, 0.052367725, 0.27312972, 0.14375151, 0.17560512, 0.056399729, -0.14466585,
		                               0.1643613, -0.082052029, -0.24292882, 0.089224791, 0.011002527, -0.082268527, 0.13080167, -0.064860995, -0.18461344, -0.033161209,
		                               0.096250621, 0.027560004, -0.0017434818, 0.11641353, 0.092340295, 0.042753528, 0.077985398, 0.0042626374, -0.092761475, -0.0052957768,
		                               -0.034203612, -0.039333587, -0.0052523982, -0.072654674, 0.018896236, -0.096152761, -0.21004119, 0.062668397, 0.034143916, -0.077910505,
		                               0.069752144, -0.031430887, -0.08465405, 0.019180067, -0.459208, -0.58332061, 0.048243669, 0.17867831, -0.14561772, -0.64732076,
		                               -1.2273926, -0.91142459, 0.12670771, 0.33440823, 0.79894268, 0.016830971, 0.73337777, 0.10375997, 1.0198357, -0.32752672,
		                               -0.097772524, 0.68761177, -0.46778405, -0.12438603, 0.20773808, -0.53657454, -0.24954459, 0.83651, 0.070454261, -0.36412197,
		                               1.1917623, 0.1276278, -0.15765469, 0.24128001, -0.19401618, 0.36170841, 1.1204343, -0.64898132, -0.27701905, 0.34943002,
		                               -0.57362554, 0.093395374, 0.0083021112, 0.47951227, 0.013610916, 0.29690075, -0.34604407, -0.29074073, 1.0598817, -0.56920775,
		                               -0.73994929, 0.51704502, 0.1410165, -0.52206742, -0.29096154, 0.12378208, -0.30360621, 0.60215853, -0.13436532, 0.16153424,
		                               0.59665105, -0.94893012, -0.19008009, -0.67925012, -1.2706555, -0.59046339, -0.15596376, 0.91759272, 0.11625924, 0.31627542,
		                               0.42047551, 0.35791105, 0.029803987, 1.088742, 0.096740301, 0.29196271, -0.65132989, -1.383257, 0.29445747, 0.87767382,
		                               -0.31356903, 0.26060518, 0.92451374, 0.15482181, 1.4366817, -0.18022006, 0.84874313, 1.0474567, -0.12989323, -0.64251714,
		                               -0.5686058, 0.25610667, -0.37200974, -0.5617666, -0.48675338, -0.014558814, 0.25706023, -0.18655997, -0.27236343, 0.01179468,
		                               0.65234261, -0.15648211, -0.04691867, 0.22736582, 0.06877892, -0.27979329, -0.43594127, 0.082185786, 1.1648419, 0.125829,
		                               0.098869651, 0.34752448, -0.64587107, -0.011239559, 0.98416046, -0.038873038, -0.50552978, -0.17744977, 0.37113373, 0.096378528,
		                               0.083259974, 0.45742899, -0.14930684, 0.03061588, 0.72882178, -0.37445917, 0.18587868, 0.050756325, -0.13213594, 0.19556615,
		                               0.21764366, -0.0077364167, -0.26225364, 0.19844358, 0.28559232, 0.82023295, -0.29423242, -0.019210365, 0.20409769, -0.052159286,
		                               -0.27871782, -0.73391732, -0.33373876, -0.080016155, 0.29535804, 0.48090492, -0.13837744, 0.42266017, -0.085896919, -0.65829973,
		                               0.41743203, 0.87775701, -0.37650306, -1.3206201, -0.42321625, -0.2951341, 0.68184976, -0.20001166, 0.031725476, -0.81610432,
		                               0.28313513, 0.29566373, 0.4243504, 1.1107469, 0.028096549, 0.17580595, 0.31285092, 0.69188194, -0.23096902, 0.24571335,
		                               -0.41883742, 0.13420323, -0.19061261, -0.32760232, -0.073990226, -0.10204154, -0.054430851, 0.49870939, -0.7028843, -0.123452,
		                               0.19785429, 1.0486127, 0.27714408, -0.06742467, -0.2211497, 0.23606529, -0.97595564, -0.35132187, -0.0035646054, 0.59041785,
		                               1.642364, -0.57715089, 0.12381402, -1.0037487, -0.048061699, 0.21750097, -0.11358877, -0.66051308, -0.97027322, -0.21235144,
		                               -0.37668076, 0.30271142, 0.34936415, 0.61037539, 0.93380856, -0.16466183, 0.10478401, 0.099329311, -0.10907593, 0.24082955,
		                               0.069337444, 0.24869123, -0.35425784, 0.40945012, -0.32115198, 0.15587546, 1.0097552, 0.34464124, -0.36832053, 0.17124628,
		                               -1.0366838, 1.1947489, 0.0023803063, -0.55383665, -0.4479817, -0.95347202, 0.082981087, -0.25741204, 0.22913175, -1.6922137,
		                               -1.0765028, 0.078829696, -1.353366, -0.22222605, -1.0944086, -0.054862017, -0.85082426, 1.4817439, 0.14591158, 0.10853325,
		                               1.3689113, 0.0054984499, 0.11511262, 0.23878293, 0.11155094, -0.1891068, -0.13859554, 1.244873, -1.0028692, -0.72890525,
		                               -1.3115962, 0.39878195, 0.64461951, 0.76761166, -0.23826897, 0.018373278, -0.69825772, 0.31214414, 0.14345964, 0.19195361,
		                               -0.35609137, 2.033691, 0.1798306, -0.39964077, 0.51360962, -0.10395701, 0.15394128, 0.72265114, -0.65060329, -0.51496386,
		                               0.49051417, -0.92838101, -0.84481568, -0.34982604, -0.38748655, -0.2880768, -0.40551402, -0.25557652, 0.029023988, 0.23153555,
		                               0.14591509, 1.1644442, 0.49782893, 0.022372074, 2.5762041, 0.0032381743, -0.33749321, -0.16230854, 0.65019025, 1.1589614,
		                               0.25094235, 0.67242835, -0.2337915, -0.010610651, 0.5520196, -0.67490828, -0.31722843, 1.5872294, -0.3626206, -0.19540188,
		                               0.014625642, 0.30591736, -0.086608587, -0.0073215723, -0.37053415, -0.12530406, -0.0098904018, 0.59565923, -0.46543979, -0.14078599,
		                               0.33188316, 0.89844871, -0.11226445, -0.053290619, 0.22307456, 0.91855135, -0.067369824, -0.12617412, 0.40656365, 0.33972556,
		                               -0.11463711, -0.4742423, 0.3099084, -0.094019658, 0.30733476, 0.55852652, -0.49940686, 0.72535515, 0.20919294, 0.55688611,
		                               0.60613259, -0.71039538, -0.24233729, 0.22301733, 1.0493867, -0.28644717, -0.2933056, 0.10186785, 0.060278531, 0.053300548,
		                               0.1900263, 0.0060393762, 0.51962125, -0.88320773, -0.46708435, -0.044669566, -0.22863498, 0.022330982, -0.76247003, 0.52657045,
		                               0.079312703, 0.56545619, 0.31121318, 0.13762609, 0.42354649, -0.31667117, 0.34142121, -0.73141207, -0.2667393, -0.1656327,
		                               0.63153905, -0.59839889, 0.25519167, 0.032307514, 0.060733509, -0.24570705, -0.21737014, 0.31289826, 0.42330623, 1.4648269,
		                               0.33915167, 0.0079994401, 0.24353428, 0.066565889, 0.20020572, 0.11956199, -0.49256908, -0.20236288, 0.066482679, 0.15459198,
		                               -0.05733544, 0.48374709, -0.26476819, 0.1502709, 0.33217216, 0.28816979, -0.11079842, 0.35030995, -1.296406, -0.27497175,
		                               -0.81681489, 0.14833727, 0.26555228, -0.83881358, -0.42102339, 0.10831498, 0.17190766, -0.085058373, -0.14130583, 0.23830188,
		                               0.52945509, 0.22299013, -0.41734072, -0.61636602, -0.45440712, 0.58740906, 0.15432258, -0.084627699, -0.26702475, 0.69908479,
		                               0.25529563, 1.2838412, -0.098590861, 0.0042979308, 0.014791949, 0.093354256, -0.13458111, 0.1810737, 0.26430267, 0.59048423,
		                               -1.060562, -0.8680573, -0.57859843, -0.57116352, -0.74002646, -1.3886783, -0.68979808, -0.22841732, -0.95763168, -1.0983498,
		                               0.58690811, 0.31060289, 0.81979958, 0.28490848, 1.0807412, 0.63770118, 0.31819568, 0.24000709, 0.36682626, -0.81300887,
		                               -0.16468751, 0.13962576, -0.20287202, -0.75162256, -0.11970121, 0.30228559, 0.09256984, 1.1132922, 0.0095584996, -0.020072187,
		                               -0.085466974, -0.40215924, -0.4499866, 0.15997984, -0.15186149, -0.51590757, -1.1945984, -0.10914044, -0.45380219, 0.36683336,
		                               -0.20508158, -0.34920746, -0.64945872, 0.12440759, -0.5122162, 1.5579108, -0.11318155, -0.19579272, 0.44605834, 0.68064722,
		                               0.28675027, 0.8779011, -0.12967171, 0.14944725, 0.98108216, -0.19819576, 0.060991441, 0.32056169, 0.23462283, -0.25894024,
		                               -0.016988008, 0.72255596, -1.1978698, -1.266874, -1.525026, 0.13073258, 0.53916305, 0.40494013, -0.69881744, 0.45791802,
		                               0.96221834, 0.54451834, 1.6370438, -0.43930097, -0.38822219, 0.26771227, -0.28446958, -0.50124915, -0.47173153, 0.52077464,
		                               0.075759593, -0.44355605, -1.3356294, -0.39987121, 0.35888407, 0.78514926, -0.90650377, -0.22517838, 0.19711841, -0.23189463,
		                               -0.30985824, 0.46137368, -0.097608447, 1.0371111, 1.3984113, 1.8758272, 0.48641706, -0.28931252, -0.77244098, -0.42721765,
		                               0.068431519, -0.33807456, 0.7559692, 0.27873596, 0.44785256, -0.67534334, -0.40289008, -1.1223738, -1.1989559, 1.1004776,
		                               -0.40819962, -0.019718662, 1.1261696, 0.62700613, 2.3863532, -1.5011012, -0.2433527, 0.093836177, -0.55539724, -0.67185961,
		                               -0.5457562, 0.43176594, 0.018168864, -0.037919537, -0.03991338, -0.18420647, -0.33648636, -0.0062706703, -0.15253227, 1.5206204,
		                               0.42850767, 0.54573917, -0.10733191, 0.73842535, 0.77372647, 0.22732832, 1.1042239, -0.14216256, -0.46097697, 0.11194051,
		                               -0.96291862, 0.68200597, -1.1267812, -0.19131877, 0.58734028, 0.012964103, -0.11829775, -0.24230332, 0.32440962, -0.05291834,
		                               -0.17633938, -0.37241477, -0.42399472, -0.059176877, 0.0042518888, -0.036466512, -1.2626874, 0.57827474, -0.052831458, 0.6951344,
		                               0.053106352, -0.074986167, -0.62758282, -0.098187077, 0.064445202, 1.2095013, 2.2084076, 0.10734529, 0.80039966, 0.088136451,
		                               1.2151555, -0.22271802, -0.18384356, -0.21986133, -0.30376363, -0.82899415, -0.5458342, -0.29926538, -0.32589248, -0.54315935,
		                               0.25558614, -0.29602737, -0.087184409, -0.84788114, 1.0703536, -0.29024796, 0.38267074, -0.10677498, -0.3001181, -0.6554914,
		                               1.0061592, -0.0061680823, -0.69569226, -0.92335018, -0.22388399, 0.51005844, 0.34930074, 1.2197635, 0.47304253, 0.075863975,
		                               0.22952421, 0.70805861, 0.093176487, 0.32024806, 0.037472629, 0.24267985, 0.92376001, -1.3541998, -0.14715414, -0.036044837,
		                               -0.035007709, -0.013457436, -0.75864335, 0.31171953, -0.091198878, -0.0584435, -0.75841985, 1.3987322, -0.11094163, -0.68205989,
		                               -0.96364458, -0.1031881, 0.28927582, -0.79675684, -0.55925364, -2.5132569, 0.85039537, -0.1457583, -1.1229468, 0.12659818,
		                               1.5534906, 0.25183117, 0.0026332898, 0.15430162, -1.1001774, -0.42445047, -0.39430536, -0.007556083, 0.086965046, -0.77894495,
		                               0.093796547, 0.11106593, 0.87228674, 0.46150868, 1.4841348, 0.25976235, 0.27084847, -0.33053781, -0.16506921, 0.34548812,
		                               -1.2560239, -0.93959746, -3.0045139, 0.80630472, -0.329781, -1.1231606, -0.61466195, 0.92486924, 0.060068092, -0.78109441,
		                               -0.46982526, 0.56453517, 1.2440667, 0.23887913, 0.53510168, 0.45486189, 0.50815735, 0.50502967, -0.03728873, 0.34825681,
		                               0.042090806, 0.17455556, -0.1165415, 0.38133725, 0.17721834, 0.3556344, 0.16568274, 0.28718667, 0.34170377, 1.5871031,
		                               0.28862668, -0.0092529887, -0.41772469, -0.12194919, 0.35027032, 0.90133744, -1.2505823, -0.92617505, -0.41500082, 0.3229972,
		                               -0.024658539, -0.20702887, -0.24219819, -0.088323892, 0.32940185, -1.6248793, -2.0600296, 0.25519115, -0.60793086, -0.13679434,
		                               -1.0066738, -0.16745808, 0.062829824, 0.33234113, 0.63426289, 0.53171944, 0.59002679, -0.20025691, 0.019556185, 0.075980372,
		                               0.083850441, 0.61041478, 0.49941574, 0.36511094, 1.2306533, 0.40405861, -0.059434167, -0.094821274, -0.43683958, -0.28077351,
		                               0.2166566, 0.16888236, -1.2369726, -0.71220349, 1.0550734, -0.17673901, -0.31836995, -1.0518804, -0.75671038, -0.26674056,
		                               0.24146779, -1.4153369, 0.73477021, 0.36095576, -0.61260815, -0.73744577, -2.0406034, -2.8814822, -1.9765609, 0.15761439
};
