#include <ap_fixed.h>


ap_fixed<32,10> unscaled_weight[4164] = {
                               -0.0079035087, -0.019903976, 0.01493517, -0.0099839917, 0.043784319, -0.010352215, -0.072766422, -0.017975116, 0.00086782671, -0.11799491, 0.0051157607, 0.015131586,
                               0.049894791, -0.012644306, 0.048940281, 0.092525964, -0.044795434, 0.010166507, 0.19485507, -0.066163957, 0.005797656, 0.20919369, -0.056863701, 0.0015411895,
                               0.020920606, 0.0056213695, -0.0095038617, 0.061332514, -0.044519919, 0.010044379, -0.14351922, -0.0072371018, 0.019323274, -0.087796395, -0.027092628, -0.036909882,
                               0.065965612, -0.040362232, 0.049000438, 0.17924025, -0.04347159, -0.016994886, 0.19595957, -0.024152261, -0.010024325, 0.15765296, -0.0067786523, -0.022006809,
                               -0.051306843, -0.032447675, -0.0125734, 0.015677595, -0.0041026523, -0.033411536, -0.16644172, 0.0069746161, 0.040622193, -0.15434069, 0.0011166388, -0.055665329,
                               0.02566007, -0.019088401, 0.0024267748, 0.048807031, -0.028853029, -0.024078397, 0.12359509, 0.015425022, -0.0053189315, -0.049740433, 0.016983163, 0.0099182901,
                               -0.12063497, 0.018020687, 0.055245342, -0.13328775, 0.0082256575, 0.036734914, -0.12150187, -0.032088358, 0.02242678, -0.2102108, 0.032351277, -0.056179306,
                               -0.16389736, 0.02788423, 0.048235992, -0.10941113, -0.019829766, -0.003611554, -0.049317462, 0.040669818, -0.0076325909, -0.12518655, 0.049206189, 0.010646249,
                               -0.062194965, -0.0046646733, -0.010280522, -0.16095281, 0.0069983742, 0.032205703, -0.25230393, 0.025458899, 0.019149742, -0.20386941, 0.043311617, -0.059439409,
                               -0.11871898, 0.032411436, 0.0042058155, -0.12730136, -0.019855501, -0.0028591833, -0.079182906, 0.003414529, -0.024733422, -0.098786513, 0.074947529, -0.028216562,
                               0.1135612, -0.055934456, 0.020300241, 0.014129211, -0.0094712939, -0.0095738301, -0.11187236, -0.036727119, 0.018009821, -0.077319919, -0.040704438, -0.046836529,
                               -0.085674025, 0.017866206, -0.0042123021, -0.0093033977, -0.025745581, 0.0021614943, 0.025256367, 0.0012039705, -0.0058726903, -0.096272738, 0.049134796, 0.026368129,
                               0.091881023, -0.028990406, -0.0023627466, -0.018437643, 0.03409754, -0.032382474, 0.026776743, 0.000926728, 0.037454955, -0.084756724, -0.071255981, -0.028858934,
                               0.05647934, -0.047309781, -0.026801323, 0.13885557, -0.057624983, 0.053013796, 0.19343658, -0.05506479, 0.021314, 0.10881105, -0.046449023, 0.0022154095,
                               0.062371622, -0.00092464071, 0.018095101, -0.0030744747, 0.062316969, -0.0071692755, 0.0085306612, 0.048450769, 0.047124166, -0.11560694, 0.022528098, -0.032354008,
                               0.011218318, 0.030189502, -0.008168341, 0.10225794, -0.020955841, 0.017744687, 0.18450244, -0.071418663, -0.0041905781, 0.21581947, -0.055531631, 0.011551239,
                               0.02357379, 0.01041419, 0.0098634935, -0.012606964, -0.017111704, -0.013626365, -0.0033702885, -0.0035034125, 0.0062024073, 0.0068438895, 0.0092376869, 0.02154649,
                               0.049036547, 0.043150683, 0.046827757, 0.014819249, 0.00087856038, 0.009621878, 0.016079546, -0.001615453, 0.0020292849, 0.023942246, -0.0026633199, -0.0066233756,
                               -0.00062625932, -0.012563477, -0.0098476061, 0.018454847, 0.011499591, 0.013794383, 0.013247462, 0.019703327, 0.028692856, -0.03394756, -0.038101973, -0.024330259,
                               0.051239964, 0.042251637, 0.051974534, -0.010764742, -0.024665439, -0.0095142777, -0.0083031172, -0.024307274, -0.007571947, -0.010587465, -0.033285152, -0.026397655,
                               -0.0069535158, -0.0054532944, -0.0104514, -0.027059661, -0.027359318, -0.031420911, 0.020212402, 0.03593248, 0.053284219, -0.055893324, -0.059225899, -0.041797395,
                               -0.00040715888, -0.0089841777, 0.016727852, -0.031320307, -0.039966195, -0.0076721314, -0.015464103, -0.025320742, -0.0058836963, -0.011871878, -0.0089750996, 0.01748037,
                               0.023695524, 0.04425513, 0.072649534, 0.011591695, 0.027126289, 0.057842846, 0.011952876, 0.020707124, 0.038081094, -0.07484987, -0.059975031, -0.02772333,
                               0.00025882971, 0.040123586, 0.08026382, -0.033566911, -0.020459629, 0.022791462, -0.031131605, -0.027487147, 0.0015912035, -0.023300419, -0.010399124, 0.02259162,
                               -0.022696845, -0.013279109, 0.00054676017, 0.009883095, 0.016945276, 0.053126699, -0.014106114, 0.010498213, 0.040586414, -0.070166868, -0.057653587, -0.03459584,
                               -0.027281716, 7.7731033e-05, 0.033532407, -0.030808833, -0.012460293, 0.026241765, -0.039856036, -0.02908899, -0.013294786, -0.059221145, -0.040545883, -0.01357334,
                               0.028054445, 0.032342801, 0.015016978, -0.0082001359, -0.00057019852, 0.0012965415, 0.0078779631, 0.021288728, 0.032452709, -0.032198383, -0.034185883, -0.035790922,
                               -0.017478598, -0.00069898218, 0.0095644468, -0.0095015202, -0.0032963799, 0.015508811, -0.028465945, -0.020583547, 0.0074645909, -0.013087089, 0.0057875241, 0.036878743,
                               0.0031724489, 0.012818115, -0.0038403536, -0.026353941, -0.017968675, -0.028444126, 0.032110439, 0.044968331, 0.041569611, -0.023078029, -0.018820815, -0.018847225,
                               -0.01000761, -0.011455395, -0.021269892, 0.048638956, 0.047853879, 0.052235828, 0.031735433, 0.018013843, 0.017415095, 0.0088783676, -0.0065299758, 0.00031250879,
                               0.010060025, 0.029255721, 0.026941041, -0.018630579, -0.0021109675, -0.0004663181, 0.029505825, 0.045160778, 0.050954379, -0.043927097, -0.024633273, -0.021136249,
                               -0.01452609, -0.0056286167, 0.0020170915, 0.023542192, 0.013857053, 0.018387293, 0.023003985, -0.0034194217, -0.012170024, 0.029898752, -0.0012111813, 0.0092668501,
                               0.081792044, -0.014102694, 0.011058917, 0.019623204, 0.076671171, 0.055560852, -0.052924028, -0.097300648, 0.024628577, 0.018046398, -0.022704865, -0.074479758,
                               -0.015813243, 0.059529698, -0.11644026, -0.066038309, -0.04358718, 0.031578802, 0.021919571, -0.031468495, -0.096082558, -0.08079178, -0.031981875, -0.092195635,
                               -0.0068689399, -0.10411293, -0.0017181712, 0.020809998, 0.013692781, -0.024527349, -0.034945808, 0.024817182, -0.0016734323, -0.014848446, -0.045133264, 0.028903568,
                               0.035624142, -0.062413369, -0.096602865, -0.058029065, 0.054995878, -0.091175859, -0.093148335, -0.04586983, 0.016235369, 0.048765083, -0.0022338477, -0.002233253,
                               0.06346523, 0.026747709, -0.027425589, -0.003175329, -0.058129966, -0.045843158, 0.041293091, -0.0028949667, -0.036035062, -0.05986003, 0.04499489, 0.033510647,
                               0.0089684427, -0.043665849, 0.030446778, 0.02324798, 0.019207332, -0.013047563, 0.01042999, 0.0019513062, -0.10911549, 0.0010301955, -0.072476538, 0.055443773,
                               0.027321227, -0.001216219, 0.001908055, 0.068742624, 0.015608981, -0.020803654, 0.01214365, -0.043600457, -0.022404583, -0.019883064, -0.16312612, -0.13080035,
                               0.018097012, -0.0049981676, -0.093672706, 0.045493523, -0.013735788, -0.00035873097, 0.066153884, 0.11761497, 0.035401084, 0.027571342, 0.05455075, -0.080190536,
                               0.03242509, -0.046447837, 0.083470238, -0.068881636, -0.053574401, -0.035792493, 0.042962498, -0.0039002991, -0.032854338, -0.017984987, -0.079377833, 0.002727228,
                               0.0040570739, -0.083903301, -0.12325855, 0.038616903, 0.011265238, -0.035174148, 0.075431747, 0.0042225577, -0.0014892483, -0.075634242, -0.0089384753, -0.066202306,
                               -0.03113558, -0.0040914331, -0.059039182, 0.042267969, 0.096885863, 0.014246396, 0.0038827526, 0.0020941653, -0.010728753, 0.077146398, 0.0077804899, 0.038288105,
                               0.041731013, -0.049580461, 0.016136468, -0.042851008, 0.10216562, 0.064847925, 0.016619896, 0.016671643, 0.11628925, 0.020207302, 0.059168066, 0.035679139,
                               -0.065204073, 0.00086262331, -0.040627311, -0.04319555, -0.019131744, -0.085954577, 0.01122588, 0.091459096, 0.014062856, -0.004187343, 0.062677155, -0.039986311,
                               -0.05165988, -0.034771992, -0.13294478, 0.0435153, -0.010108442, -0.00060518881, -0.051408031, 0.092720064, 0.056809852, -0.021319357, -0.010560267, 0.080980603,
                               0.001319925, 0.023041732, 0.0065396682, 0.011589814, 0.056555941, 0.057925163, 0.031511652, 0.019416615, -0.031366991, 0.016955801, 0.032125982, 0.063578873,
                               -0.07386891, 0.041569172, -0.044563457, -0.10512844, -0.059701069, -0.18588848, 0.036230554, -0.027706147, -0.016346234, 0.13811076, 0.076543551, 0.061708173,
                               -0.045134347, 0.089517199, -0.10909947, -0.022209477, -0.06739143, 0.007092567, -0.054007109, -0.01187994, 0.0072432394, -0.017643127, -0.024810715, -0.12200942,
                               -0.036228413, -0.024183101, 0.031153455, 0.079597532, -0.046028944, -0.028035501, -0.047134815, 0.017849107, -0.053730499, -0.050632957, -0.012407906, -0.0059226834,
                               0.09712354, 0.063241803, 0.092494187, -0.0056221145, 0.088750055, -0.14049667, -0.029255329, -0.036374148, 0.033334036, 0.075468751, -0.13755095, -0.025032733,
                               -0.02673734, 0.12637559, -0.06908709, -0.12079446, -0.053352046, 0.016291853, 0.051724524, -0.037151024, 0.0061895222, -0.039093617, -0.0052888095, -0.051616796,
                               -0.055024062, -0.0010277349, -0.029187682, 0.020346271, 0.046033341, -0.024382827, -0.033451506, -0.029016342, -0.023628194, -0.10916046, -0.056654578, -0.041048703,
                               0.090921468, -0.12732914, 0.00049688602, -0.030173389, 0.12023088, -0.046793042, -0.14148259, -0.082281001, 0.020057777, 0.1269403, 0.027670507, 0.0043935886,
                               -0.11682639, 0.049440725, -0.17824126, -0.0046299971, -0.12192203, 0.0001577767, 0.032154974, 0.046363824, -0.047922715, -0.026954605, -0.033509311, -0.0099090322,
                               -0.082862824, -0.026915567, -0.0046283477, 0.037351656, -0.030167347, -0.041190611, -0.013982823, 0.018276237, -0.023306864, -0.04874799, -0.029654585, -0.025731323,
                               0.059069584, -0.0013752102, -0.013275936, -0.097655828, 0.062896034, -0.16087111, -0.010915805, -0.12333899, -0.0049612548, 0.083962693, -0.013045785, -0.056273506,
                               -0.076337565, 0.13551693, -0.061813033, -0.093525818, -0.11494594, 0.01405243, 0.014080257, -0.047048796, -0.072674006, -0.02616393, -0.0049634671, -0.036087106,
                               -0.015352304, -0.017329487, -0.020239878, 0.068843813, -0.040559064, 0.036770408, -0.051796227, 0.0046941797, -0.016395058, -0.037932145, 0.025947175, 0.04595115,
                               0.084865876, -0.012592014, -0.074363184, -0.076017125, 0.14557588, -0.086179106, -0.085872537, -0.11314938, 0.026233428, 0.11616685, 0.02988393, -0.024652715,
                               -0.15514045, 0.024871354, -0.092492845, -0.066423722, -0.019807848, -0.011128447, 0.087517501, -0.042808253, -0.0074476286, -0.097155638, 0.0090373127, 0.0019434037,
                               -0.023610989, 0.0036421896, 0.034270147, 0.038907858, -0.050046712, 0.0040663121, -0.023045465, -0.039904885, -0.0075367324, -0.05239782, -0.081975972, -0.072840562,
                               0.14143753, 0.098603424, 0.048926959, -0.076229978, 0.067469321, -0.087959654, -0.078905356, -0.015412284, -0.019222361, 0.073521983, -0.086441382, -0.044330311,
                               -0.041768228, 0.025060738, -0.00015048866, -0.020213586, -0.033221405, -0.094696163, 0.084856385, 0.038896598, 0.064409564, 0.0051664358, -0.023943592, 0.010152249,
                               -0.066513308, -0.073847826, -0.094895993, 0.036855056, -0.040930554, -0.01568124, -0.050848714, -0.0039996057, -0.066417308, -0.030003728, -0.028435545, -0.026272124,
                               0.13287222, -0.022087581, -0.016156274, -0.031229383, 0.03867678, 0.0042803013, -0.036829375, -0.042670146, -0.081323127, 0.066923331, -0.035364974, -0.058479101,
                               -0.004546781, -0.034463451, -0.034450907, -0.043264562, -0.029558123, -0.082274785, 0.077511309, -0.023338236, -0.013318209, -0.073848678, -0.0073049826, -0.037393909,
                               -0.070838827, -0.048461456, -0.020276528, 0.02621947, -0.093343377, -0.031911788, -0.05215212, -0.040362718, -0.033836063, -0.081409629, -0.073569719, -0.077975075,
                               0.093401706, 0.046425952, 0.020901312, 0.073086362, 0.031928171, 0.050183617, 0.014296429, 0.01399632, -0.097067032, 0.028843501, 0.040109117, 0.075683409,
                               0.020527146, -0.039706929, -0.077489422, -0.078754948, -0.043796343, -0.085790938, 0.039654157, -0.027744985, -0.015091986, -0.012167748, 0.011441203, 0.038570478,
                               -0.014487935, -0.025077419, -0.080507676, -0.043833671, -0.077344659, 0.052479766, -0.0094033491, 0.0045234219, -0.037472596, -0.025322151, -0.015720051, -0.025623619,
                               0.072275248, 0.070778671, 0.079165219, 0.05858923, -0.0075623225, -0.035444137, -0.046653183, -0.010346549, -0.062692634, 0.059702176, -0.0093602799, 0.02179864,
                               -0.1472167, -0.049155092, 0.0058527562, -0.075886815, -0.04731663, -0.034179543, 0.017651498, -0.061760933, 0.039747382, -0.0074674082, 0.025568969, -0.013493449,
                               -0.0048613247, -0.0024426154, -0.032781931, 0.11814104, 0.054708452, 0.025896883, 0.024726155, -0.031870773, 0.066640932, -0.010387773, 0.0089633877, -0.036158917,
                               0.033762883, -0.0019435381, 0.063717907, -0.12372647, -0.039767298, 0.024893366, -0.051674875, -0.0098156369, -0.018570456, 0.030626722, -0.0080339603, -0.021213221,
                               -0.13334087, -0.13823234, 0.054935461, -0.069000595, -0.099734056, -0.16487768, 0.093115931, 0.034809041, 0.056926031, 0.040328736, -0.019949868, 0.065518016,
                               0.021666347, 0.029308141, -0.0087677571, 0.15988954, -0.0064523827, 0.049867061, 0.11417772, -0.015899266, 0.10140109, 0.079829702, 0.048198372, -0.028889637,
                               0.018334841, -0.058041516, -0.12288793, -0.087164565, 0.018756164, -0.11164803, -0.019387763, -0.089715154, -0.034593535, 0.035218944, 0.0064483917, -0.035672984,
                               -0.049244233, 0.064254778, -0.0049215125, 0.026250265, 0.016911024, 0.030252118, 0.072688739, 0.12663884, 0.047298841, -0.093460836, -0.02261677, -0.011545296,
                               -0.066694224, -0.11883973, 0.0030739, -0.021621355, -0.032289773, -0.03216476, -0.0095566443, -0.0055500161, 0.0023716886, 0.072341134, 0.02892793, 0.087006792,
                               0.0096966136, -0.024205269, -0.049976035, -0.072416324, 0.064832496, 0.00010831853, 0.017519819, -0.00069997199, 0.019642676, 0.050102892, 0.031686413, -0.0016994205,
                               0.0064017689, 0.053682499, -0.10297865, 0.0013428567, -0.025390845, 0.0638241, -0.056999449, -0.052731795, -0.024599024, -0.010033364, -0.0081690637, 0.011010986,
                               0.047908814, 0.027614416, 0.070470004, -0.014166669, -0.11054722, 0.0048432095, -0.033238367, 0.076443146, -0.0041835068, -0.017826633, 0.0088666805, 0.066963118,
                               0.025447349, 0.073604663, 0.024093145, -0.0020982376, 0.065925913, -0.14785681, -0.012166063, -0.039615886, 0.064435727, -0.10746884, -0.10626882, -0.050876797,
                               0.022275739, -0.014902151, -0.083344003, -0.026459061, -0.091730747, -0.050901986, -0.0014514539, -0.071189314, 0.016510633, -0.025747457, 0.074813323, -0.019371594,
                               -0.011322994, 0.010223516, 0.055078449, 0.012776279, 0.086603179, 0.059024713, 0.0082297162, 0.0083948442, 0.046747387, -0.024907396, 0.038434762, 0.1041581,
                               -0.042448291, -0.052188629, -0.013001491, 0.039984508, 0.016077585, -0.026631365, 0.0079852032, -0.084220821, -0.039766423, -0.0908449, 0.050421948, 0.010841438,
                               -0.046391587, -0.011881848, 0.049953822, -0.01443705, 0.016407182, 0.01364701, 0.022333642, 0.11091146, 0.071714891, 0.029591033, 0.012076077, 0.05275617,
                               -0.018622289, 0.048376158, 0.098266121, -0.026640012, 0.10958988, 0.099055854, 0.037992707, -0.010003783, 0.022181926, -0.026876076, 0.018642086, 0.026696768,
                               -0.068578047, 0.062841804, 0.015665819, -0.049818197, -0.035851166, 0.058126018, -0.0093064318, -0.0044445131, 0.0026784068, -0.012082579, -0.001641007, 0.038521706,
                               -0.0094385888, -0.014145077, -0.067103039, 0.0045221025, 0.018578476, 0.027997476, -0.012873236, 0.09655812, 0.085374982, 0.0055451804, -0.021317508, 0.0012908666,
                               -0.032469615, 0.0038528845, 0.03591474, -0.012271608, -0.020992045, 0.064460267, 0.053060154, -0.011142749, 0.024154817, 0.046245962, 0.065228578, 0.099707394,
                               -0.040512329, -0.010226525, 0.030178754, -0.023472919, -0.02731006, -0.10305757, -0.024819456, -0.021676029, 0.025102325, 0.072693256, -0.056958421, -0.046685428,
                               -0.081454937, 0.024500836, -0.035713133, -0.0029608009, -0.0093059746, 0.018586252, -0.050136235, -0.035592374, 0.0027163138, 0.042133476, -0.040148138, 0.014516454,
                               0.041888993, 0.032048707, 0.083739445, 0.0085046048, -0.02934094, -0.12255792, -0.059397372, 0.014771797, 0.019681348, 0.088796053, 0.0085236799, 0.059743346,
                               0.06675605, -0.036696461, -0.0024406095, -0.015622917, 0.032060126, -0.025511338, -0.0097867118, 0.01130792, 0.037404244, 0.025522726, 0.06496749, -0.0081027681,
                               -0.016307971, 0.008887627, 0.0063635899, -0.081983961, -0.046860465, -0.020607887, -0.00024192887, -0.0087909817, -0.092681997, -0.071209299, -0.00028701169, -0.0077806882,
                               0.0981499, 0.032182807, 0.066387808, 0.0090472687, 0.0076077415, 0.027817186, 0.035952517, 0.019962332, -0.094626187, -0.068666122, 0.016807096, 0.11136584,
                               0.047017256, 0.050371743, -0.027774696, -0.038049257, 0.010287532, 0.026305609, -0.088386175, -0.048106845, -0.0098428639, 0.096967942, 0.0046395438, -0.028530564,
                               -0.0031733756, 0.066166595, 0.037507546, -0.00016405835, -0.015988592, 0.006379861, 0.033050015, -0.016658, -0.018177283, 0.011551236, 0.0087374144, -0.085862826,
                               -0.057929933, 0.0048985233, 0.1122541, 0.096018394, -0.046754666, -0.00064733173, -0.029861856, 0.043731608, 0.05403831, -0.018280177, -0.024382444, 0.0074530827,
                               0.056435313, 0.0041828441, -0.031060804, 0.0099262087, 0.042199543, -0.0025972991, 0.012600142, -0.019437087, 0.015830092, 0.075967169, 0.0056893842, 0.022873918,
                               -0.067865796, 0.01982742, 0.0031851744, -0.025118281, 0.009654691, 0.074159864, 0.066250015, -0.084364622, -0.029643786, -0.035218125, 0.033907854, 0.058989437,
                               -0.0054365465, -0.036835187, -0.00060637126, 0.055814923, -0.047109539, -0.018501775, -0.059513122, -0.055302099, -0.043540437, -0.057647136, -0.047522217, 0.0087674737,
                               0.093151426, -0.0096673949, 0.030174372, -0.053949249, 0.084533319, 0.020672103, -0.0029360413, 0.017688037, 0.076809795, 0.061526438, -0.006846689, 0.022183718,
                               -0.0041046864, 0.0093697169, -0.018788512, -0.038754315, -0.083594948, -0.053981466, 0.090945745, -0.01757819, -0.01729675, -0.055374454, -0.014535469, -0.011805542,
                               -0.025073613, -0.041097595, 0.00034277697, 0.0059480112, -0.040991083, 0.0093309722, -0.010743226, -0.051108662, -0.04706797, -0.13956937, -0.057661506, -0.13982572,
                               0.10093048, 0.053085825, 0.058953637, 0.025454073, 0.033555143, 0.008070614, -0.020303812, -0.057464555, -0.057235899, 0.056272721, -0.03371708, 0.0044009446,
                               -0.059792132, 0.035799454, -0.062335225, -0.062002376, -0.012023998, -0.0041522474, 0.058169822, -0.004334705, 0.010103677, -0.0080848741, -0.010038068, 0.010248563,
                               -0.093310113, -0.046985724, -0.13338571, -0.0025966813, -0.062844051, -0.016964164, 0.015084258, -0.030896996, -0.015488331, -0.017023572, -0.02491249, -0.025359512,
                               0.081619536, 0.0030643054, 0.0078354756, -0.048656769, 0.032829736, -0.042556787, -0.09322829, -0.012888823, 0.0027641068, 0.048247119, -0.038381801, -0.018582311,
                               -0.073299598, -0.0062121497, -0.0093307507, -0.05971692, -0.040368186, -0.049152259, 0.01117683, -0.041247745, -0.016086465, 0.017840757, -0.021136434, 0.015926083,
                               0.0035771552, -0.046497856, -0.040544527, -0.0083048408, -0.032032145, -0.037208759, 0.040871306, -0.092771159, -0.020572941, 0.019660203, -0.055292527, -0.10911261,
                               0.049679107, -0.030890449, 0.0038304171, -0.038875537, 0.04048255, 0.039428978, -0.024044806, -0.0021119957, -0.056551315, -0.074860994, -0.15466579, -0.00051320353,
                               -0.051712705, 0.014084868, -0.063405753, -0.087478719, -0.029984426, -0.045570524, -0.0024111312, -0.003573345, -0.035256754, 0.061971214, -0.051778968, 0.04422397,
                               0.066209286, -0.033794377, -0.12226887, 0.04553738, 0.095242914, 0.041636662, 0.014239059, -0.0088914565, 0.002559368, -0.00065215113, 0.050257416, 0.02013901,
                               -0.043664335, -0.11614658, -0.013557204, -0.057905335, 0.022449774, -0.041188178, -0.066483351, -0.029774177, -0.041121191, 0.028399818, -0.10212592, -0.071716462,
                               -0.0080109344, -0.053033588, -0.020799125, -0.053441153, 0.018103198, -0.041763471, 0.016976417, 0.099711482, 0.0022972656, 0.02600783, 0.001449271, 0.021428703,
                               0.019800099, 0.042324326, 0.016997301, 0.12739348, 0.074286543, -0.065194294, -0.0060752354, 0.073381817, 0.11684852, 0.074314843, 0.05352187, 0.037404779,
                               -0.055041282, -0.14698078, -0.020579072, -0.010076819, -0.049683196, -0.036863366, -0.042736999, -0.0062073186, -0.045022816, 0.049871152, -0.1646117, -0.034008605,
                               0.061723682, -0.072415518, -0.025228273, -0.0054913643, -0.029678907, -0.035815841, 0.073508928, 0.076130875, -0.033064213, 0.014982354, 0.05860027, 0.060770215,
                               0.060477294, 0.035034738, 0.017161449, 0.026647118, -0.041663396, -0.039504303, 0.0052886995, 0.018736146, 0.18297814, 0.18202247, 0.071018454, 0.014563425,
                               0.033845599, 0.086161359, 0.044443892, -0.11330227, -0.020887718, -0.04375922, -0.07334764, -0.10414376, -0.039467766, -0.06121109, -0.10632256, -0.0502935,
                               -0.096838763, -0.028117735, -0.061137552, 0.026583802, -0.025218457, 0.034149543, 0.16053633, 0.1120197, 0.064664697, -0.053894266, 0.095767727, 0.19047859,
                               0.11203059, -0.09587868, 0.0089614054, -0.063274634, 0.014092284, -0.030562366, 0.032821503, 0.02102059, -0.009949949, -0.022378206, 0.051113406, 0.11107371,
                               -0.1080469, -0.089711342, -0.03822063, -0.030419408, -0.023474458, -0.036870333, 0.055724449, 0.0045932413, 0.051328664, -0.0098076797, -0.10810465, 0.038191084,
                               -0.040159848, 0.072062901, -0.023656263, -0.0050927782, -0.011633879, 0.011830814, -0.05331442, 0.052718178, 0.0099337805, 0.070537325, 0.054530276, 0.0084234868,
                               0.0023816125, 0.069675072, 0.11708931, 0.019945774, -0.0039584147, 0.01210226, 0.084455539, 0.033155588, 0.078794416, 0.0023345326, 0.12259444, 0.092212671,
                               -0.010082247, -0.065002946, 0.020468601, -0.047528601, 0.050944292, -0.042341834, -0.034966504, -0.035198269, -0.0088939187, -0.040669718, 0.052303708, 0.052322928,
                               -0.018729552, -0.016445518, -0.022365146, -0.059273098, -0.010062532, 0.037994498, 0.034350355, 0.011129709, -0.00057626039, 0.049063957, 0.012858216, 0.0089950631,
                               -0.027186375, 0.070125841, 0.07213633, 0.023353656, 0.031183342, 0.046258021, -0.032724114, 0.042156569, 0.010539748, 0.027026624, -0.016138501, -0.025582745,
                               -0.0027401098, 0.077358658, 0.060879229, 0.021160603, 0.01224979, 0.013084955, -0.049345865, 0.019545096, 0.057834926, -0.042358741, 0.090068375, 0.10977679,
                               -0.0032605563, -0.030078034, -0.018616866, -0.059675553, -0.02682614, -0.037630329, 0.046809529, 0.038592456, 0.074424922, -0.0091385535, 0.053874342, 0.046869726,
                               0.035736791, -0.0091460864, -0.038900129, -0.047780861, 0.060655831, 0.031280456, -0.044902208, -0.0095384881, 0.053329053, 0.02719961, -0.0022276362, -0.052883952,
                               -0.008992223, 0.088896212, 0.097648441, -0.013276831, -0.0020473273, 0.014767416, -0.041420017, -0.016761032, -0.019518845, -0.045824111, -0.031498177, 0.044326904,
                               0.014106358, -0.022033901, 0.0076820582, 0.026217906, 0.040803507, 0.054407064, -0.024566348, 0.068777752, 0.014741328, -0.038981307, -0.0017560147, 0.093637539,
                               0.049142878, -0.0032297945, -0.030058746, 0.013452181, -0.04881684, -0.0043984541, 0.0024567578, 0.013962123, 0.013864466, -0.035471505, 0.00088350543, -0.061652555,
                               -0.044996886, -0.0083263936, 0.067907077, 0.031149216, -0.037318034, 0.028936587, 0.067747696, 0.047601406, 0.064810483, 0.020339182, -0.029946922, -0.084594999,
                               -0.05390682, 0.042260567, 0.052580115, 0.099391154, 0.043738355, 0.057500367, -0.018772333, -0.038876544, -0.0094320293, 0.011686466, 0.012683296, 0.033888901,
                               -0.024832109, 0.010435676, -0.059325911, 0.018757289, -0.025793113, -0.002786127, -0.064821021, 0.018659883, 0.064580398, -0.023916615, -0.005140507, 0.013322911,
                               0.0086784197, 0.0028231606, -0.033090796, -0.04170539, 0.046383486, 0.021250255, 0.10467461, 0.05709172, 0.067255903, 0.01661261, 0.034305299, 0.07219163,
                               0.056205922, 0.014490003, -0.078490768, -0.035798941, 0.0084830956, 0.10893547, 0.021718259, -0.0076467402, 0.010125121, -0.061908911, 0.010747339, 0.051136663,
                               -0.025419286, -0.0094255228, -0.00077602797, -0.015363177, 0.097207944, 0.038979024, 0.038569685, 0.0447984, 0.10245098, 0.040813339, 0.041487624, 0.070861852,
                               0.035313796, 0.038174654, 0.056245538, 0.04989644, 0.02814744, -0.070019621, -0.036851265, 0.013976874, 0.11699392, 0.10409096, -0.019984221, 0.025030255,
                               -0.0053160139, 0.057490988, 0.04844664, -0.0031527502, -0.02413841, 0.014459381, -0.026122999, 0.1032559, 0.0052248247, 0.027725053, 0.029216898, 0.10152305,
                               0.0077330219, 0.035036922, 0.072731393, 0.0062018179, 0.031451005, -0.046421623, 0.017371949, -0.013962753, -0.055522232, 0.063716056, -0.00061762318, 0.053519589,
                               0.090851021, -0.023117501, 0.021024794, 0.0084928049, 0.07903215, 0.085192051, 0.022581359, -0.023561491, 0.02459236, 0.10683146, 0.018744198, 0.058503903,
                               -0.020287374, 0.0040926825, -0.012731439, -0.010017562, 0.015426086, 0.038794773, 0.035494107, 0.027535605, -0.0059508267, 0.040878257, 0.007157754, -0.033529765,
                               0.065649348, 0.012190419, 0.067587525, -0.047811868, 0.015383923, 0.027274135, -0.010246814, -0.0075098893, -0.027294494, -0.0094155291, -0.022204916, -0.015333023,
                               0.11624256, 0.044952778, 0.074914873, 0.0081643951, 0.025437933, 0.011800989, -0.00087062767, 0.022239354, 0.056062342, 0.04018768, -0.016951285, 0.025874877,
                               -0.020582555, 0.0070515288, 0.016977358, -0.065246716, -0.015778752, -0.05937094, -0.0048908058, 0.065714677, 0.019504992, -0.012639928, -0.0070381176, -0.00092917779,
                               -0.0053468882, -0.016970777, -0.00023661458, -0.078010136, -0.047545182, -0.029695964, 0.068053252, -0.028976768, 0.079560212, -0.0086683465, 0.0064812947, 0.080897883,
                               0.066207103, 0.0061542021, 0.03917059, 0.0044088915, 0.02663097, 0.048529724, -0.063127432, -4.3188932e-05, -0.065748894, 0.023972232, -0.026635914, 0.0072454038,
                               -0.0020369399, -0.014311168, 0.02715018, 0.0055748628, -0.015842002, -0.0037367625, -0.04651384, -0.023728486, -0.011969184, 0.088383082, -0.025407228, 0.085341123,
                               0.019610756, 0.038283081, 0.088458216, -0.11259853, -0.021090245, -0.027632734, 0.04464686, 0.0034793485, -0.052537532, -0.019387208, -0.02322834, 0.04996062,
                               0.026181951, -0.013277732, 0.015438965, 0.004031293, -0.0046023718, 0.044919735, -0.0097540128, -0.051589909, -0.017339907, 0.0038601205, -0.0089636758, -0.020499523,
                               0.040672822, -0.063531809, 0.023776652, 0.040774495, -0.015691698, -0.068541036, -0.14071395, -0.027694939, -0.040640091, 0.062501054, 0.020089899, -0.057887401,
                               -0.012555659, 0.0062799669, 0.093293912, -0.05315593, -0.027877202, -0.03396211, 0.041676739, -0.0070142502, -0.060704257, 0.016969071, -0.077328312, 0.07496577,
                               -0.0035113794, 0.0034496209, -0.012907099, 0.028112014, -0.044513437, 0.053397529, 0.072092565, -0.016554489, -0.093973425, -0.022867871, 0.028817351, -0.0023909744,
                               -0.0042112682, -0.01755908, -0.039256909, -0.029072494, 0.023803417, 0.033770375, -0.068291791, -0.05414588, -0.035986377, 0.074160515, 0.018406022, -0.059260559,
                               0.021209707, -0.039863259, 0.10137409, -0.010221325, 0.011843931, -0.060992106, -0.04065869, 0.013841974, -0.0087761123, 0.034162947, -0.027130429, 0.043932531,
                               -0.044948578, 0.048499656, 0.012252382, 0.011239944, -0.0087260508, -0.034196232, -0.038334233, 0.011594357, 0.020817963, 0.061578336, 0.052022493, -0.044838723,
                               -0.027695143, 0.057905061, 0.041314508, 0.037559796, 0.038389704, 0.032558032, -0.050520844, 0.011950643, -0.029270458, -0.035085566, 0.005659181, -0.0092935135,
                               0.029966626, -0.038412923, 0.027805661, 0.06898854, 0.056420637, -0.067475609, -0.029738117, -0.009950742, 0.0080320623, -0.045926963, -0.081082576, -0.080249419,
                               0.0092491333, 0.037451737, -0.033039067, -0.013121024, 0.059468224, 0.037868627, 0.060599444, 0.057460358, 0.038330249, -0.045406194, -0.061846238, 0.002606304,
                               0.024962647, 0.017961671, 0.1273473, 0.11312116, 0.0687882, 0.0099716893, 0.043724842, 0.032653808, -0.050050309, -0.029950372, 0.0044261657, 0.02391657,
                               -0.01585974, -0.042517175, -0.079197271, 0.021915709, -0.12239914, -0.085926374, -0.02950463, 0.087263806, 0.022570853, -0.10729941, -0.044769749, -0.0044794832,
                               0.12245182, 0.034616345, -0.0063311578, -0.13399718, 0.078024688, 0.16917719, 0.11448078, -0.11745724, -0.018699078, -0.067771037, -0.040891668, -0.072142022,
                               -0.021992656, 0.016607695, -0.011545976, -0.044842539, 0.013312816, 0.058977681, 0.034798195, -0.053192905, -0.03164243, -0.21584399, -0.028474796, -0.0082036709,
                               0.050054125, 0.018554606, -0.091184686, -0.021961008, -0.029084043, -0.037449469, -0.063821149, -0.0020780046, -0.060125909, 0.0088684836, -0.0019252636, 0.10835899,
                               -0.067078903, 0.017854585, -0.021513119, -0.0015103359, 0.023496084, -0.0026142572, -0.029468226, 0.03518842, 0.067367613, 0.016007331, -0.03110255, 0.0095593504,
                               0.033441773, -0.019605787, 0.062572136, -0.015868993, 0.083901626, 0.064104892, -0.014021983, -0.0091823986, -0.0086955325, -0.054834579, 0.012649985, -0.032182651,
                               0.023560592, 0.029905436, 0.11968453, 0.0095201927, -0.014970792, -0.017202495, 0.067911687, 0.00052089443, 0.0088385807, 0.007254629, -0.015479999, 0.0075777109,
                               0.041299781, 0.0046329956, 0.0064847646, 0.012347324, -0.0094779121, 0.05031063, -0.023150731, 0.072002036, 0.030653173, 0.0050859113, 0.021683327, 0.034441631,
                               -0.043478967, 0.012838504, 0.0033805213, 0.0052355949, 0.0040074653, -0.03937714, 0.034530961, 0.054877813, 0.012147243, 0.079728711, 0.0062780789, -0.0092021448,
                               0.030478746, 0.0079298149, -0.0018737642, -0.01015714, 0.017454292, 0.020848453, 0.033638047, 0.0010813551, 0.056931853, -0.0013269366, -0.094280855, -0.099293211,
                               0.036619124, 0.019781026, 0.035009522, -0.041226874, 0.02319199, 0.038598028, 0.025889493, -0.015566031, -0.048380101, -0.059513333, 0.050826175, 0.015042462,
                               -0.04930467, -0.024840504, 0.040255499, -0.0068424642, -0.040582826, -0.087186083, 0.025334442, 0.034081493, 0.039773023, 0.063385498, 0.019829015, 0.078091267,
                               0.020979855, -0.07549201, -0.060588385, -0.010834848, 0.046388223, -2.6188101e-05, 0.078791083, 0.079125555, 0.016329079, -0.044292805, -0.070131335, 0.01438423,
                               -0.059795131, 0.03817942, 0.0096657279, -0.02575852, -0.0042023122, 0.063052228, -0.0016333483, -0.036441532, -0.079841984, 0.0025082939, -0.061141585, 0.0066015939,
                               -0.0052429351, -0.011570357, -0.011907551, -0.055339467, -0.017763309, -0.064566224, 0.0048154301, 0.049308747, 0.021788617, 0.096765305, 0.097510477, 0.064247942,
                               -0.010426418, -0.037841341, 0.048549331, 0.027154042, -0.012093204, 0.0094748572, -0.06578206, -0.01643594, 0.029224401, -0.0079302959, 0.033014689, -0.049822819,
                               -0.0065314233, -0.013553916, 0.0099452888, -0.014327458, 0.0011354563, 0.031762897, -0.046531822, -0.0070426275, -0.081156012, 0.040179938, -0.054875122, 0.022883196,
                               -0.071032957, 0.015470729, 0.060711416, -0.021111683, 0.0079080018, -0.0055777567, 0.041096802, 0.026861955, 0.023693541, -0.066501063, -0.021411377, 0.056054622,
                               0.0087101447, 0.023074244, -0.030075149, 0.015726896, 0.032959891, 0.061535616, -0.048279405, 0.023943173, 0.010962512, 0.042341324, -0.059757323, -0.076163902,
                               0.048727392, -0.023819281, 0.029443039, -0.054351065, 0.020861244, 0.08119134, -0.0069538651, 0.013360572, 0.00044144886, -0.016243318, 0.063688481, 0.02995764,
                               0.021470593, 0.032513629, 0.066956626, 0.011476207, 0.025272994, 0.030899311, 0.033097979, 0.023765177, 0.046379577, -0.066587215, 0.058745649, 0.010687168,
                               0.02301305, -0.064575179, -0.097432299, -0.069572466, 0.028580243, 0.069264682, 0.050169971, 0.067426032, 0.036051563, 0.0092592373, 0.028797809, 0.043921824,
                               -0.010067201, 0.075464818, 0.027220288, 0.040491973, 0.049087791, 0.12363093, 0.060339971, 0.063877238, 0.0525734, 0.0046226924, 0.048383122, 0.0010840229,
                               0.035469994, -0.0019502872, -0.06880226, 0.045271685, -0.030066896, 0.049751312, -0.053970944, 0.046219169, 0.051130511, 0.041561267, 0.054632602, 0.076204326,
                               0.045823706, 0.062528024, 0.055724627, -0.068097893, -0.099847292, -0.0094246394, -0.0062430829, -0.018636896, -0.017009527, -0.081790902, 0.029860979, 0.00048871823,
                               0.026660774, 0.069482334, 0.021012962, 0.062154004, 0.033212701, -0.054679821, 0.06078881, 0.0075902043, 0.076163609, -0.043633659, 0.045967775, 0.033543768,
                               0.0094472207, 0.017527998, -0.038433466, -0.018995791, -0.008276903, 0.0054364353, -0.033520593, -0.055215158, -0.0084833141, -0.00059453713, 0.0075142657, 0.020706655,
                               -0.04296866, 0.062907326, 0.010414703, -0.038999851, -0.071294124, 0.044443166, 0.009926264, 0.043120057, -0.029932678, -0.012209728, 0.036413716, 0.048187096,
                               -0.00018569608, 0.094695302, 0.068430503, 0.035598851, 0.028350482, -0.0076014036, 0.0021515133, 0.018817641, -0.0021530272, -0.054249764, 0.0037643752, 0.021684095,
                               0.098448542, -0.022878459, 0.06013286, 0.010117493, 0.012985828, 0.08339554, -0.011541664, -0.02805341, 0.079006312, 0.003861021, 0.046148459, 0.0046041594,
                               -0.0055820911, 0.026675125, 0.05184177, -0.053959407, -0.050387244, 0.034929844, 0.043861065, 0.029990725, 0.042928404, 0.056831862, 0.033423089, 0.0086011356,
                               -0.036852987, 0.016217573, 0.044749806, 0.12045567, -0.0086774143, 0.074548892, 0.029952016, 0.046261987, 0.094476589, -0.073865148, 0.037971915, 0.042477672,
                               0.077484397, 0.037585583, -0.014962619, -0.015240499, 0.0055097943, 0.040759837, -0.046033733, -0.027731004, 0.03895994, 0.034612146, 0.013883739, 0.061531757,
                               0.07650821, 0.034833857, 0.045324104, -0.08145141, 0.13076238, 0.058714524, 0.016341951, -0.0094835164, 0.026655457, 0.050431696, 0.0018460354, 0.10442885,
                               -0.11373918, 0.014375537, 0.0032416881, 0.079838023, 0.044588921, -0.01973967, 0.0010274459, 0.040210268, 0.06645013, -0.029530009, 0.01783134, 0.0057525968,
                               0.053215344, 0.021571081, -0.010316441, 0.049667707, -0.011250143, 0.069941694, -0.12312566, 0.10009645, -0.012451379, -0.021073684, -0.018955558, 0.017750965,
                               0.046269567, 0.016404412, 0.13351299, -0.018275493, 0.012675599, 0.0012283384, 0.071811965, 0.010489251, -0.034346387, -0.0011220525, 0.069086249, 0.087118995,
                               -0.070319789, -0.0073793642, 0.0060939253, 0.054128971, 0.024962563, -0.055121678, 0.022341819, -0.025028123, 0.064320779, -0.068438798, 0.014211649, -0.053536167,
                               -0.049896676, 0.004683239, 0.00037576782, 0.020624487, -0.034455898, 0.031681067, -0.022786216, -0.0088110188, 0.012556922, 0.07457364, 0.023012843, -0.022154403,
                               -0.0014134166, 0.056222878, 0.083912975, 0.00090832776, -0.030403894, -0.027407388, 0.0689395, 0.02349275, 0.089223613, -0.027578424, 0.0022518736, 0.086838501,
                               -0.11470614, 0.0068114992, -0.0024151168, -0.010945944, 0.024120205, -0.020156681, 0.0030692434, -0.02196624, 0.025901401, 0.040164715, 0.065436525, -0.045680936,
                               -0.026777528, -0.020526585, -0.01805061, -0.013269043, -0.028076088, -0.051072751, -0.038259809, -0.010641404, 0.021437571, 0.065627707, 0.024547183, 0.033268327,
                               -0.055607677, -0.023641329, 0.05546952, 0.10446273, 0.025793199, 0.052267318, 0.023337474, -1.1837121e-06, 0.035102092, -0.017665456, -0.036674531, 0.024124518,
                               0.017711855, 0.041023104, -0.077349331, -0.053239862, -0.025036429, -0.0019788015, -0.029867508, -0.021659277, -0.050188873, 0.023091557, -0.11624728, -0.068298667,
                               -0.024798987, 0.089616747, 0.04396046, -0.084579713, -0.028397871, -0.0069308189, 0.099395092, 0.021727544, 0.034214011, 0.029708714, 0.023397335, 0.038429373,
                               -0.0075606506, -0.026834977, 0.033619978, 0.072284641, -0.032748806, 0.0032863648, 0.016653139, -0.0041445217, -0.10049377, -0.034019577, -0.00088691148, 0.0090878132,
                               0.076492931, -0.033502637, 0.028270917, -0.18692013, 0.025895929, 0.043456113, 0.11569438, 0.061149627, -0.061221551, -0.018091882, 0.034689005, -0.0014706121,
                               -0.0089539352, 0.034066229, -0.046442478, 0.043098903, 0.064644001, 0.14586101, 0.023200524, -0.027355214, -0.030200189, -0.11244434, -0.037570347, -0.098171847,
                               -0.057661305, -0.096079441, -0.017337009, -0.012037474, -0.03214119, -0.066448207, -0.041849292, -0.025017878, -0.047893857, -0.013633327, -0.07904707, 0.0094473202,
                               -0.0040631998, 0.065146384, 0.042574318, 0.0067890118, 0.021142436, -0.026084377, 0.046477474, 0.069165572, 0.13455465, 0.039679323, 0.040476565, 0.032514541,
                               0.088311097, 0.020547474, 0.086596776, 0.069272446, 0.026737381, 0.0061797708, 0.0072045338, -0.0074410437, -0.019626369, -0.036525308, -0.019320014, -0.050191711,
                               -0.03075368, -0.074092931, -0.017186333, -0.021395679, 0.019992781, 0.0097913625, -0.066220404, -0.043434636, 0.0072103422, 0.028577847, -0.0040148942, 0.042259692,
                               0.027056441, 0.052938864, 0.026100762, 0.090551172, 0.015081467, 0.062121191, 0.06222226, 0.016867696, -0.0031184003, 0.025773592, 0.058417225, 0.058872912,
                               0.10285947, 0.031059724, 0.092742709, 0.056604537, -0.049426038, -0.047580676, -0.063464858, 0.0021872775, -8.464165e-05, -0.087695249, -0.077943929, -0.0015205088,
                               0.042133381, 0.017576556, 0.038005231, -0.00054780748, 0.045566112, 0.041558689, 0.046266795, 0.079340463, 0.02528368, -0.056523637, -0.032064186, -0.06456559,
                               0.004529273, -0.0025104166, 0.015679351, 0.061917276, -0.016647138, 0.077177184, 0.027215013, -0.091933713, -0.064557079, -0.0093411789, 0.031440907, -0.0058125529,
                               0.087634965, 0.055197519, 0.037969825, -0.029709478, -0.054166374, 0.018311137, 0.0098926004, 0.016211773, 0.0513924, 0.060038488, 0.074317547, 0.036787433,
                               -0.02909434, -0.0041554302, -0.042906657, -0.028031588, 0.025013133, -0.0094696783, -0.086735854, -0.020009598, -0.022825662, 0.02181139, 0.075765159, 0.024198059,
                               -0.0095209773, 0.023015251, 0.0087672508, 0.096667639, 0.066343336, 0.063231257, -0.03569661, -0.048052139, 0.052060672, 0.008892939, -0.055219609, -0.035588975,
                               -0.13179316, -0.058846241, 0.031494583, 0.00056117736, 0.0023996664, -0.059505041, -0.047730813, 0.030808449, 0.01494925, -0.07368574, -0.0058652778, -0.010020978,
                               0.042054311, 0.090070671, 0.038626126, -0.071612101, 0.068544165, 0.038876627, -0.080845834, -0.042346965, -0.031649113, 0.039132649, -0.0049569517, 0.021688099,
                               0.03584886, 0.011318615, 0.012449535, -0.095593997, -0.061181493, 0.039261755, 0.0056957667, 0.0059435401, -0.058682209, 0.021102806, 0.020937994, 0.036372386,
                               -0.16096121, -0.013107767, 0.011392138, 0.031895189, -0.07307626, -0.089411148, -0.037175215, 0.14547066, 0.05922991, -0.080716417, -0.036394573, -0.0071080087,
                               0.053781241, -0.0095249873, 0.0022116663, 0.00787501, 0.0085804613, -0.017255538, -0.019680857, 0.0090603006, 0.0095264833, 0.06256634, 0.077411757, 0.074263202,
                               0.038917267, 0.020287425, 0.020938173, -0.13464303, 0.010594005, 0.0057653511, 0.011669355, -0.081151446, -0.09319976, -0.059021968, 0.0085977772, 0.036986524,
                               0.018250297, -0.0073430615, 0.029625516, -0.008210249, -0.009677789, 0.021789688, 0.038968547, -0.0067639354, -0.035277583, -0.038283066, 0.019444146, 0.023526164,
                               0.07270201, 0.080408279, 0.076272253, 0.034295168, 0.0020051643, -0.0091502162, -0.036145462, 0.019035652, 0.046972688, 0.032673328, 0.093625901, 0.067747465,
                               -0.067462326, 0.038514327, 0.037781095, 0.050994896, 0.012851499, 0.049363586, 0.020312674, 0.049151993, 0.043462095, -0.082127726, -0.10490041, -0.020090938,
                               -0.051459568, -0.069249494, -0.01547294, -0.056812592, 0.034562357, 0.011023649, 0.053696568, 0.020577849, -0.0017973531, -0.018071362, 0.044207199, 0.084519406,
                               0.076846833, 0.12335212, 0.076219639, -0.011833085, -0.06319453, 0.015928365, 0.025628094, 0.0055596675, -0.096936073, 0.040806715, -0.0032525198, 0.045911422,
                               -0.062329967, -0.066087231, -0.0079394879, -0.030526801, -0.054631495, -0.0010370724, -0.048527511, 0.055914723, 0.02437352, -0.076292154, -0.034849241, 0.06440954,
                               -0.031337295, -0.0095131603, -0.053600379, -0.024696225, 0.010426408, 0.061928073, 0.050043216, -0.016668022, 0.018286249, 0.050384744, 0.043866663, -0.050376556,
                               0.10408484, 0.043738188, 0.03913998, 0.02234763, -0.0016075429, -0.0073853824, -0.042517749, 0.0035532894, -0.0094318195, 0.002994041, 0.0013986532, 0.050034253,
                               -0.046418935, -0.022930272, 0.076437077, -0.03863198, 0.014547258, -0.025760691, 0.00164153, 0.03110786, 0.07262901, -0.069787686, -0.041263628, 0.047917348,
                               0.015210212, 0.0013273617, 0.039148886, 0.033654714, -0.0068333281, 0.018060409, 0.049719222, 0.017550449, 0.0019850938, -0.03302057, 0.044771335, 0.00059320204,
                               0.019900651, 0.039992211, 0.08158162, 0.0086003565, 0.020793282, 0.0027109668, 0.060858825, 0.019305227, -0.012395772, 0.014567197, 0.014662238, 0.027777884,
                               -0.041902209, -0.022388331, 0.037703734, 0.00097960196, 0.0070174552, 0.059258497, 0.056116304, 0.033835801, 0.053969357, -0.070588627, 0.1191247, 0.026839389,
                               -0.0046769164, -0.0059164683, 0.0034854478, 0.0025146277, -0.017564821, 0.11568212, 0.030346952, 0.026717995, -0.0024245524, 0.095060729, 0.023015655, 0.0086660366,
                               0.025407365, 0.037585614, 0.051341794, -0.028282351, 0.074497081, 0.024797473, 0.011502041, -0.016647872, 0.018062304, 0.023541294, 0.0036983353, -0.029442699,
                               -0.1131061, 0.099942044, -0.0056528703, -0.0068753135, 0.010460001, 0.022536471, 0.039055146, 0.031483184, 0.15933084, -0.040101296, 0.0027584289, 0.02926346,
                               0.10603887, 0.019329365, -0.036479115, 0.0068486125, 0.070743999, 0.10732773, -0.059255874, 0.046427041, -0.016114045, -0.02518161, -0.019943, 0.025780479,
                               0.028480528, 0.013695084, -0.028856843, 0.059780368, -0.063337137, 0.043933793, -0.03076913, -0.010235203, -0.012221113, 0.021868001, 0.014032203, 0.019273737,
                               -0.057386024, -0.018177432, 0.017981976, 0.067704808, 0.023595394, -0.011262421, 0.0165498, 0.066744118, 0.088193538, 0.00029358532, -0.039223014, -0.04401373,
                               0.048405598, 0.02375183, 0.10171584, -0.0044958275, -0.022367549, 0.061354791, 0.027650794, -0.091177879, 0.017215073, -0.045422644, -0.0011588802, -0.015162184,
                               0.024216583, 0.0086554889, 0.017598229, 0.0017089418, 0.039545559, 0.023317233, -0.050730444, 0.0093735164, 0.020699076, 0.015258165, 0.059721663, 0.07216511,
                               -0.057175265, -0.046958626, -0.020985937, 0.0038598771, -0.013492933, 0.058020969, -0.029170459, -0.057243933, 0.036982248, 0.10666699, 0.045397333, 0.017011952,
                               -0.040602959, -0.016471402, 0.059141592, 0.011168186, -0.049076058, 0.012372144, -0.022460119, 0.022895534, 0.019448576, -0.045327618, -0.0041245177, -0.019024038,
                               0.0078952361, 0.044561841, 0.05583287, 0.043348765, 0.034724649, -0.0020332169, -0.01709823, -0.0064603618, -0.034808145, -0.038565488, -0.0048921304, 0.025199855,
                               0.09305976, 0.019659669, -0.012206223, -0.035531804, -0.0072246253, 0.048053325, -0.0036257641, -0.070515599, 0.025495691, 0.066950261, -0.07471419, -0.021799115,
                               0.0013599134, -0.013164224, -0.0837948, -0.04804139, -0.036140821, 0.00261947, 0.0027941569, 0.0052315698, -0.045828312, -0.0085720498, -0.032902139, -0.062112504,
                               -0.062968932, -0.024796504, 0.033974279, 0.08764212, 0.075991911, 0.019183026, -0.0158757, 0.013881101, -0.13703957, -0.15696496, 0.023588627, 0.073638698,
                               0.038764804, 0.017759564, 0.018831386, 0.013634274, 0.04706725, -0.098959428, 0.0067568728, -0.0067673185, 0.039954418, 0.02196795, 0.08085243, 0.0067752386,
                               0.062388229, 0.070068708, -0.0077065312, 0.067356298, 0.0092092396, 0.07223831, 0.03820743, -0.058512617, 0.038014758, 0.07007038, -0.0076779928, -0.054866658,
                               -0.09349102, 0.061984531, 0.030269478, -0.040279567, -0.10162958, -0.024046273, -0.069020085, -0.017639035, -0.063860536, -0.037103501, -0.06960437, 0.030214216,
                               0.02221999, 0.054274686, 0.0088255521, 0.055010959, 0.043590771, -0.028081688, 0.015389423, -0.013589147, 0.04541517, 0.029594254, 0.086885384, 0.069087653,
                               0.0045616819, 0.015689997, 0.03195554, 0.043305196, 0.026068556, 0.055828244, -0.0082910555, -0.074356662, -0.011666998, -0.037036276, -0.02230435, -0.063237779,
                               -0.052449276, -0.074685734, 0.015430071, 0.035041668, 0.034561339, 0.03003142, -0.025046148, -0.0041378767, -0.01269657, 0.035704604, -0.053284462, 0.020800432,
                               -0.0309766, 0.052729154, 0.056568532, -0.019953336, -0.025209017, 0.0017925845, 0.035351051, 0.030256756, 0.034087702, 0.061196451, 0.059819738, 0.051399282,
                               0.074939259, 0.11578635, 0.05836723, -0.0090584933, -0.016506704, -0.0461495, -0.035569174, -0.018773613, -0.0075389183, -0.05477452, -0.04752524, -0.062667366,
                               0.015403994, -0.058150561, -0.00093537347, 0.073218518, 0.021348559, -0.015488611, -0.029288558, -0.034496282, -0.045344982, -0.071440482, -0.015954243, -0.016553023,
                               0.030339006, -0.002488358, 0.040172521, 0.050027783, 0.079280291, 0.056376453, -0.034917907, -0.0049580181, -0.044822989, -0.0076799866, 0.039728215, 0.02118576,
                               -0.050356184, -0.0021486528, -0.026264314, 0.020439039, 0.10748196, 0.01784137, 0.026130506, -0.047903807, -0.030062838, -0.049585968, -0.056150122, -0.033853518,
                               -0.07563189, -0.015338653, -0.017648404, -0.020294658, -0.0066792876, -0.073949525, -0.062118093, -0.0099256374, 0.030699976, -0.026359225, -0.001115875, 0.054143151,
                               -0.067075511, 0.069015371, 0.034601928, -0.025251127, -0.0071132526, -0.035392276, 0.0097157662, 0.1272382, 0.035833703, -0.081828671, 0.082345877, 0.034130749,
                               -0.04991441, -0.034757905, -0.013664395, 0.04507181, -0.012558175, -0.0010918235, -0.032388344, -0.025025381, -0.069399661, -0.036033559, 0.010880764, -0.009592755,
                               -0.035667779, 0.0047349351, 0.055577487, -0.012863321, -0.039340476, -0.053721939, -0.018740567, -0.019125816, 0.063894851, 0.070313277, 0.085197344, 0.03217613,
                               -0.064465965, 0.12989321, 0.058375379, -0.056638173, -0.024761874, -0.025813491, 0.038756553, -0.026894872, -0.043703692, -0.0067950016, -0.0071057443, -0.022754609,
                               -0.054875441, -0.004464196, 0.0075949711, 0.050186776, 0.051478117, 0.034371577, -0.010438932, -0.034324738, -0.0068955697, -0.020150839, -0.035617723, 0.032561892,
                               0.057773016, 0.075110941, 0.020334132, 0.060314673, -0.043232276, 0.044658421, 0.023142297, -0.001998747, 0.0091729107, 0.05319948, -0.0098334002, -0.033482033,
                               0.031299045, -0.02757078, -0.050016922, -0.051620955, 0.024078759, 0.02474101, 0.070950528, 0.064444047, 0.044377061, 0.030031888, 0.03814535, -0.01761392,
                               -0.050970998, 0.0010293109, 0.030593852, -0.0070082242, 0.044319181, 0.031212866, 0.084510812, -0.026145426, 0.024248697, 0.029064764, 0.0016548746, 0.01584914,
                               0.050677378, -0.0067332466, -0.03349898, 0.023854976, 0.0034853875, 0.045873595, -0.0082257562, 0.0086096705, -0.074073601, -0.04250983, -0.03646967, -0.011097396,
                               0.045826028, 0.049858097, 0.0050732398, -0.0218514, 0.02553483, 0.06155382, 0.024907889, 0.077115939, 0.061584343, -0.0028938875, -0.081436998, 0.038690452,
                               0.0041882782, 0.0048847824, -0.09754929, 0.036771302, 0.020013175, 0.025878609, 0.046928215, 0.025214621, 0.039605387, -0.015550433, 0.034309266, -0.030843997,
                               -0.03011881, -0.029784043, -0.011174621, 0.06401674, -0.024341158, -0.021114963, 0.013031009, 0.037558929, -0.025632666, 0.0022301852, 0.025937708, 0.011416349,
                               0.025692016, -0.057979538, 0.013428399, -0.0089900802, 0.019840562, -0.079243134, 0.074810525, 0.033330395, 0.021826957, -0.023607532, -0.063202481, -0.0043588985,
                               -0.050463833, 0.014070855, -0.014573953, -0.0019096452, -0.016119886, 0.020400649, 0.078108839, -0.0077191332, -0.0056154923, 0.0070615896, 0.057197568, -0.00473649,
                               0.039392587, 0.014082686, 0.0068717213, 0.049408325, 0.041392398, -0.019845128, -0.061524106, 0.0054021441, -0.0069619084, -0.040551613, -0.03618897, 0.038117563,
                               0.014850457, -0.044913639, -0.028091531, -0.065456348, 0.023341703, -0.018275929, -0.022343318, -0.024513576, 0.031439559, -0.012390163, 0.0049164862, -0.016159069,
                               0.042369233, -0.0012030869, -0.043873835, 0.028900796, 0.0069494652, -0.0066161506, 0.074176748, 0.039539912, -0.032374508, -0.071342677, 0.013260179, 0.027520425,
                               -0.006793663, -0.02080366, 0.048309656, 0.088322724, -0.030623828, -0.0029030007, -0.045010495, -0.0057825578, -0.033680732, -0.057851988, -0.060546044, -0.028128483,
                               0.018312449, 0.0035161137, -0.019316045, 0.063988354, 0.0031592812, -0.017359576, 0.036863965, 0.024524332, 0.019086229, -0.066826233, 0.022075802, -0.0056533324,
                               -0.04804155, -0.059742116, -0.017156106, 0.0015897389, 0.015550676, -0.046299299, 0.10509348, -0.038740308, -0.0037869557, -0.037622121, 0.026849083, -0.026844092,
                               -0.038905841, -0.056564501, -0.028425864, 0.023055931, -0.024614134, 0.012510789, -0.041490748, 0.061387125, -0.048870417, -0.057432106, -0.066109071, 0.0098792315,
                               -0.043139137, 0.040398057, 0.0064225854, -0.013930727, -0.028734554, 0.04260142, 0.057636526, 0.06232069, -0.0060942207, 0.054951238, -0.060756222, 0.048332923,
                               -0.027778882, -0.033832009, -0.01446363, 0.026213865, 0.034098861, 0.054534847, 0.061171604, -0.012821998, 0.014475265, -0.047739531, 0.081732092, 0.005740216,
                               0.0025342949, -0.035907436, 0.0096781488, -0.012409269, -0.015643445, 0.0070976976, -0.014266056, -0.018958447, -0.018440741, -0.043864937, 0.036065143, -0.048172533,
                               0.044975156, -0.066498155, 0.028311411, -0.024158941, -0.010132912, 0.0094636549, 0.067990542, 0.062025899, 0.064641122, 0.050486156, 0.085600956, 0.050553363,
                               -0.039672944, 0.020623056, 0.059721531, 0.014980525, 0.042924323, 0.069721501, -0.014024087, -0.048298082, -0.0086135545, -0.015908304, -0.012738731, -0.0032642256,
                               -0.019983611, 0.05810911, -0.025398526, -0.042597856, 0.0057827745, -0.028282819, -0.029576058, 0.011015486, -0.041532195, -0.011942191, 0.0053434757, -0.046260519,
                               0.024376503, 0.049278015, 0.048290519, -0.032695161, 0.012847625, 0.054380489, 0.041790031, 0.096938633, 0.080532554, 0.087728408, 0.085357293, 0.053550973,
                               0.020716138, -0.016371519, 0.018978221, -0.020349253, 0.037858109, 0.041295174, -0.032021189, 0.016219883, -0.0027661217, -0.044819107, 0.020828323, -0.019847242,
                               -0.0017027873, 0.028637008, -0.063390233, -0.074686352, -0.078620583, 0.034960934, 0.036413955, 0.025224182, 0.014875325, 0.055800846, 0.056624172, 0.059050421,
                               0.055716698, 0.055048089, 0.067825517, 0.03476737, -0.017233786, -0.016300693, -0.03808216, 0.034802408, 0.058822924, 0.10432928, 0.1026152, 0.044694752,
                               0.055322749, 0.035322311, -0.099641532, -0.12899682, 0.053277016, 0.07805391, -0.077340684, -0.081236367, 0.038180484, 0.042333019, 0.017208458, -0.018992888,
                               0.024621684, 0.02193447, 0.064589548, 0.014847915, 0.07960238, 0.099583843, -0.025650456, -0.025478884, -0.064400301, -0.097328972, -0.063493049, -0.025195252,
                               0.070229173, -0.022498423, 0.057884318, 0.081636935, -0.014474058, -0.021179259, -0.076470791, 0.10555666, 0.04588862, 0.048881991, 0.001141901, 0.0099166544,
                               -0.061349475, -0.0025880893, 0.0056612155, 0.029110262, -0.0043095977, 0.059974788, -0.015063753, -0.015641706, 0.049419067, 0.09900586, -0.055776344, 0.030449783,
                               0.039954776, 0.031889282, 0.012768773, 0.0519228, -0.022048773, 0.06650716, 0.032562198, -0.020427829, 0.089540306, 0.00031977549, 0.016065074, 0.062956908,
                               0.027020644, -0.024011683, -0.022133096, -0.033200372, -0.018105705, -0.026683673, -0.031292162, -0.053606911, 0.035251546, 0.059605691, 0.046740366, 0.033210297,
                               -0.023608155, -0.008048622, 0.037690496, 0.02515865, -0.066502205, 0.013952391, -0.0082627952, -0.031012402, 0.027987601, -0.0086412235, -0.037398022, 0.053721077,
                               -0.036576254, 0.014915522, 0.074467217, 0.066885043, 0.045040455, 0.039519056, -0.022420349, -0.00030455489, -0.07692683, 0.040793475, 0.015727266, 0.10240486,
                               -0.037614332, 0.0014171974, 0.012239152, -0.013320447, -0.041104682, -0.01559047, -0.0072792489, -0.060984508, 0.0049656955, 0.082124177, 0.010480795, -0.045497109,
                               -0.029345238, -0.039890207, 0.0044151798, -0.053453556, -0.021717924, 0.01337419, 0.012366336, -0.013771231, 0.047764504, -0.0513378, -0.03862656, -0.12667656,
                               -0.011469249, -0.0076886556, 0.089565889, 0.10526607, 0.01734738, 0.0043656955, -0.0073423113, 0.0099154882, -0.085468521, -0.12013551, -0.027577995, 0.07746942,
                               0.045238087, -0.03966405, -0.038703123, -0.025562945, -0.030029331, -0.010844566, -0.10023886, -0.021054176, 0.016659932, 0.023330832, -0.013831275, -0.046975562,
                               -0.060537796, 0.0093225114, 0.028874116, -0.018406102, 0.001565736, 0.090214578, 0.043179008, -0.07822194, -0.0093178109, -0.040653409, -0.011385478, -0.088288427,
                               -0.086946529, 0.0091264684, 0.093213073, -0.019011345, -0.091824579, -0.041675294, -0.11325109, -0.011687311, -0.10015337, -0.059134718, -0.05812488, 0.040876426,
                               -0.0093649358, -0.022209247, -0.039011465, -0.031424891, 0.014424738, -0.025474261, -0.05529343, -0.013203669, 0.071393576, 0.001476368, -0.023023967, -0.059657837,
                               -0.0041982674, -0.018504171, 0.06432266, 0.037771515, 0.049936706, 0.036195711, -0.10197864, -0.15720104, -0.045770192, -0.12150144, -0.027448512, -0.132314,
                               -0.070574798, -0.059115757, 0.036826724, -0.050178806, -0.064720067, 0.0050193526, 0.023355668, 0.051295337, 0.025910912, 0.025927926, 0.054895441, 0.080462407,
                               -0.031871059, -0.068302287, -0.027709752, -0.021944782, -0.066742232, 0.01927613, 0.0067695608, 0.028278405, -0.0049551489, 0.051625571, -0.050488869, -0.030698926,
                               -0.0043105476, -0.024697475, 0.0088372175, 0.025572598, -0.026426075, -0.071194957, -0.077282625, -0.10583579, 0.027712802, 0.0031519708, 0.02672355, -0.011364323,
                               0.00013719668, 0.0284007, 0.065964796, 0.13215088, -0.053359089, -0.017863316, -0.0061485761, 0.013111177, -0.041808311, 0.059309218, -0.075153165, 0.037788066,
                               0.070983393, 0.0023140752, -0.024956396, 0.019128708, -0.023682665, 0.017587148, 0.039794284, -0.017955761, -0.059567322, 0.014186328, 0.012944032, 0.023815572,
                               -0.016120188, -0.02185643, -0.052498924, -0.048755683, -0.045916962, -0.019295052, 0.18125138, -0.039834585, 0.0021994551, 0.017819309, 0.024459381, 0.0049735031,
                               0.082685826, -0.040353248, 0.064136331, 0.057034905, 0.0067536484, -0.039819099, -0.024906607, -0.0075052538, -0.049292099, -0.059526055, -0.019750073, 0.043403824,
                               0.05142615, 0.019727885, 0.028250832, -0.041835102, -0.012136086, -0.0029171099, -0.040887484, -0.051489127, -0.025812107, 0.054584805, -0.015201613, 0.019932495,
                               0.0030415842, 0.0039027445, 4.4939658e-05, 0.017370692, 0.025099393, 0.0092829536, 0.092290798, 0.049389347, -0.030089996, -0.031021567, 0.020110042, -0.0075222327,
                               -0.031298973, 0.0084366859, 0.052726341, 0.040907713, 0.0055110237, -0.061096169, 0.048876133, 0.038550279, 0.0042124792, 0.075264672, 0.050646604, 0.027476662,
                               0.063364207, -0.040707993, -0.019439105, -0.024277905, 0.010427349, 0.01165796, 0.039187175, 0.002251056, -0.010817121, 0.039940367, 0.017198081, -0.030463675,
                               -0.081353606, -0.019677464, -0.01342693, -0.062037901, -0.080411652, -0.02834374, 0.048216867, -0.065318007, -0.093543984, 0.00091586335, 0.047841105, 0.0060204509,
                               0.079304996, 0.013070863, 4.7620875e-05, 0.08545829, -0.056827203, 0.085576539, 0.04014076, -0.014525568, -0.003312899, -0.034126224, -0.0084787857, 0.016373155,
                               0.064867012, 0.011190319, -0.070928656, -0.11693302, -0.022960929, -0.010785677, -0.062985553, -0.095504726, -0.01750346, 0.058992399, -0.077523374, -0.049103934,
                               -0.086346827, -0.026312562, -0.041295746, -0.06827975, -0.12189261, -0.099712353, 0.11921633, -0.011412497, 0.074853076, 0.0059445433, -0.01839743, 0.033304125,
                               -0.010541293, -0.049560002, 0.0069205002, 0.013142503, -0.11408122, -0.056226203, -0.070768743, 0.02362828, 0.0051199607, -0.014916685, -0.017533963, -0.067211716,
                               0.10275825, -0.016968195, 0.010587865, -0.020560494, 0.043720742, -0.009552889, -0.02302602, -0.079507976, -0.090177288, 0.028281075, 0.01488182, 0.031022502,
                               -0.031387772, 0.039642949, -0.024312811, -0.010777228, -0.020406132, -0.035726528, 0.04217791, -0.0083832434, 0.029463139, 0.0025301102, 0.064672764, 0.073574001,
                               0.039198384, 0.027371786, -0.063617483, 0.030314278, -0.072964449, -0.053210521, -0.091479885, -0.012377171, -0.016900839, -0.0065420136, -0.061914818, -0.11323308,
                               0.077039946, 0.055351434, 0.04635857, -0.010200318, 0.090043321, 0.041481058, 0.041118131, 0.001814643, -0.014823171, 0.016241209, 0.055470701, 0.070500813,
                               0.038757177, -0.041933159, 0.035039208, -0.0051490062, 0.049343294, -0.055359317, 0.067426675, 0.0048397952, -0.01396294, -0.08446319, 0.034746869, 0.04070892,
                               0.030843706, -0.065214118, -0.10900908, 0.085281644, -0.0093435682, 0.012031124, -0.023662714, 0.016603589, 0.065642825, 0.08294666, -0.018180153, -0.055914381,
                               0.051001202, 0.066072111, 0.051985116, 0.042588984, -0.030255529, 0.060170748, 0.011908979, 0.046846382, -0.065707379, 0.043497557, 0.083538427, 0.036828395,
                               -0.0036528566, 0.017471683, 0.057935214, 0.042868856, 0.034512018, -0.04092031, 0.096606366, -0.021005783, -0.024012395, -0.01279555, 0.078235773, 0.10893243,
                               0.12067154, -0.0084593078, -0.063304365, -0.0055388971, -0.016968952, -0.038241037, -0.080016547, -0.011092718, 0.013503331, -0.03291114, -0.056238231, -0.12529489,
                               0.040267953, 0.074752217, 0.04497794, -0.031008041, 0.011329091, 0.10288901, 0.064471279, 0.033046014, -0.071349211, 0.040138167, 0.056544703, 0.09353244,
                               0.090804952, 0.036986735, 0.11935468, 0.1120531, 0.098752584, 0.074879157, 0.0097433753, 0.021449471, 0.022673386, -0.089208064, 0.0048851667, 0.039395898,
                               -0.026165302, -0.033916519, -0.13582765, 0.047852439, 0.096769113, 0.034452066, -0.079205032, -0.0467539, 0.10438708, 0.05474604, -0.068994186, 0.03194713,
                               -0.0020168225, 0.0040823036, 0.066737746, 0.061091203, 0.022324806, 0.082606857, 0.099746844, 0.063748481, 0.071682707, 0.082733611, 0.15568043, 0.13571811,
                               0.011617024, -0.034129526, -0.0045991844, -0.045625569, -0.021970752, -0.022552255, 0.014729462, 0.050396355, 0.0098936299, -0.095856776, -0.056272224, 0.070842251,
                               0.049184283, -0.0876792, 0.045542345, 0.076464685, 0.044487048, -0.024786416, -0.03701741, 0.021262093, 0.092573233, -0.0013993984, -0.067237555, -0.098212214
};
/*
ap_fixed<32, 10> unscaled_weight[1140] = {
                               -0.2031874, 0.010736021, 0.006985125, 0.12508156, -0.040088609, 0.022899615, 0.12304632, -0.016637288, -0.053302933, -0.012926743,
                               -0.049425694, -0.021406904, 0.35616966, -0.13480739, -0.12927457, 0.065040588, -0.0091930267, -0.014265598, 0.048826941, 0.027228142,
                               -0.0033497854, -0.2531973, -0.079605822, -0.0492501, -0.20549677, -0.012103914, 0.056789931, -0.081751713, -0.049890035, -0.062473407,
                               -0.13975544, -0.051853774, 0.031205619, 0.095287485, 0.095490828, -0.0080219629, -0.010053344, -0.062684301, 0.0092688538, 0.12494553,
                               -0.066723906, 0.10964677, -0.037203846, 0.23444287, 0.10332991, 0.011025462, -0.0080362567, 0.091032682, 0.031850845, -0.043944207,
                               -0.054988035, 0.053276768, -0.26342038, -0.081811011, -0.13487586, -0.13043279, -0.04193529, 0.11592755, -0.18771489, 0.026834409,
                               0.12578558, -0.1329576, -0.1086768, -0.044379594, 0.0085800774, 0.078592075, -0.059806617, 0.14291878, 0.15173781, -0.11749756,
                               0.074461683, 0.055157131, 0.16268397, -0.037591604, -0.055910574, 0.33052192, -0.19961916, -0.098761717, -0.080798898, -0.38541379,
                               0.075044461, 0.025808487, -0.098344633, 0.093212305, 0.079373063, -0.13373822, 0.0057654474, -0.048050181, -0.07660914, 0.16607447,
                               -0.19418251, 0.18640208, 0.32966849, 0.090169757, 0.088443909, 0.094554575, 0.16347105, 0.077931579, -0.090201223, 0.10260326,
                               -0.29667501, -0.045910613, 0.085273345, -0.38169098, -0.09749288, 0.25744117, -0.054770568, 0.059008653, 0.16756924, -0.03805884,
                               0.082020963, 0.039238818, -0.066406372, 0.1533682, 0.00030049603, 0.37228165, 0.35720174, 0.011481248, 0.00040486756, 0.062477049,
                               -0.14898048, 0.069414423, -0.023332567, 0.15293506, -0.51945325, -0.11643094, 0.018200379, -0.2718868, -0.042245114, 0.24441554,
                               -0.090287329, 0.066560564, 0.13937974, 0.097235866, 0.12416509, -0.0062713008, -0.028637562, 0.10851188, -0.074995856, 0.14531085,
                               0.21599458, 0.060107182, -0.085845596, -0.0086230761, -0.060805435, 0.055478307, -0.057878992, -0.12677833, -0.30339751, -0.080154889,
                               0.029376285, -0.22521915, 0.019960223, -0.094602956, -0.14755935, 0.15951148, -0.086314792, 0.037318221, 0.13374924, 0.12585572,
                               0.062870449, 0.086951967, 0.070491122, 0.00079690963, 0.070701829, 0.057196119, -0.083123831, -0.013584211, 0.13610859, -0.10502436,
                               0.035549696, 0.25880794, -0.10054652, 0.076200331, 0.07044658, -0.14731659, -0.052926703, -0.027189005, 0.025392953, -0.031308639,
                               0.035806489, -0.075267146, 0.030706679, 0.14554726, -0.02520274, 0.038966931, 0.00081967259, -0.05993558, 0.063355457, 0.12184166,
                               -0.10062527, -0.035514741, 0.018499129, 0.021139437, 0.02053391, 0.028002916, 0.042105924, 0.049747259, -0.042738089, -0.018517819,
                               -0.031101559, 0.014324822, 0.0070725055, 0.0090010783, -0.05921806, -0.092943985, -0.11721076, -0.034624936, -0.052551517, -6.2873842e-05,
                               -0.093416737, -0.12490352, 0.0019916356, -0.04570012, -0.051446787, -0.031058461, 0.067798412, 0.07158976, 0.081832746, -0.02824766,
                               -0.021778396, -0.037632505, 0.050475697, 0.042977757, 0.036101978, 0.0141945, -0.026349063, -0.01348896, 0.053282413, -0.029732276,
                               0.014224829, 0.083759802, 0.030499569, 0.14699423, -0.24205774, -0.2760444, 0.13629016, -0.058901402, -0.091290075, 0.12699116,
                               -0.055106734, -0.047934006, -0.0077087999, -0.043571024, -0.043495752, 0.03037671, -0.065530634, -0.068977686, 0.013811901, 0.028365649,
                               -0.074771926, 0.034859472, -0.097527874, -0.24341444, -0.073994667, -0.039900436, -0.14530569, 0.13407982, -0.088343231, -0.085045312,
                               0.19137002, -0.12603473, -0.14257829, 0.075292397, -0.054190724, -0.060119096, 0.0052523129, -0.054719764, -0.097390427, 0.065594738,
                               0.0643947, 0.038956456, 0.21959277, 0.058057247, -0.067019591, 0.093470483, 0.085825294, -0.16471578, 0.016933242, 0.070049296,
                               -0.0093845154, 0.21623217, 0.041434273, 0.037893945, 0.35683416, -0.076710736, -0.097611177, 0.11326012, -0.10060818, -0.095314635,
                               -0.073369053, -0.02283298, -0.03710556, 0.11701338, -0.059225676, -0.098012331, -0.01467131, 0.07541684, -0.14024662, 0.02727591,
                               0.018930875, -0.30996537, 0.048925514, 0.071807948, -0.019820332, 0.18763205, 0.020647992, -0.011150762, 0.37523718, -0.026284497,
                               -0.067432586, 0.097203726, -0.052163319, -0.028074067, -0.014064602, -0.063501263, -0.081221706, 0.0098267051, -0.02922757, -0.091862823,
                               -0.018087507, -0.0050269299, -0.14394593, 0.076828261, -0.19020023, -0.44330953, 0.12886864, -0.026941597, -0.13123024, 0.12396507,
                               -0.039964543, -0.093314224, 0.24058933, 0.021320381, -0.0086038091, 0.024681314, -0.045796365, -0.054081898, -0.050929434, -0.031603308,
                               -0.037077735, -0.081555452, 0.10326713, 0.015171278, 0.048049986, 0.15544392, 0.10110523, 0.14703863, -0.061280472, -0.17754477,
                               0.14050294, -0.11741197, -0.25112115, 0.083626293, -0.031242637, -0.091464281, 0.083155027, -0.07342054, -0.09520067, 0.014312054,
                               0.058331689, 0.049111958, 0.042898289, 0.091130872, 0.08332706, 0.091815813, 0.011648594, -0.031744303, -0.042571066, -0.0074037493,
                               -0.036112396, -0.018474505, -0.0047871041, -0.052533872, 0.046756793, -0.061900688, -0.15633671, 0.044549834, -0.0062351488, -0.045441143,
                               0.070809455, -0.086541288, -0.12763482, -0.014787803, -0.5309524, -0.048953006, -0.085397837, 0.029046424, 0.15832601, -0.65262322,
                               0.081035009, 0.18636011, 0.81409585, 0.050593122, 0.28157588, -0.34610864, 0.46532542, 0.1972373, 1.3693773, 0.040566443,
                               -0.13740139, 0.26109388, -0.45894927, -0.2493859, 0.51939301, -1.160038, -0.066558066, -0.16474879, 0.66839865, -0.38098332,
                               0.65516976, -0.27660117, -0.27340661, 0.17050656, 0.15379017, 0.17159676, 1.1118563, -0.67305531, -0.15120795, 0.27046358,
                               -0.25044872, 0.060075683, -0.26411066, 0.2933246, -0.082511803, 0.543886, -0.13933456, -0.32005771, 0.51899577, -0.75260381,
                               -0.88002375, 0.63372173, 0.072444226, -0.21035801, 0.20736164, -0.10967587, -0.10895518, 0.20613486, -0.13701759, 0.03260063,
                               0.30800222, -0.34888567, -0.21777549, -0.43064176, -1.2765958, -0.6754026, -0.073178577, 0.56404063, 0.05113652, 0.28393504,
                               0.079759011, 0.13350576, 0.47668338, 0.83572844, 0.15167525, 0.41669514, -0.53555766, -0.94655076, 0.46358758, 0.15986718,
                               0.043934879, 0.46253054, 0.024939236, 0.10958885, 0.67000535, -0.48652649, 0.76249947, 0.70080188, -0.39908432, -0.69868913,
                               -0.13100992, -0.47380536, -0.64082193, -0.026629887, 0.0991503, 0.11192805, 0.25093485, -0.068392054, -0.13333242, 0.15812327,
                               0.45231865, 0.12838133, 0.51570977, 0.0070356397, -0.017213279, -0.16031074, -0.27283475, 0.11879217, 0.47698528, 0.27912419,
                               -0.086576902, 0.32897731, -0.40971005, 0.46037954, 0.83465708, 0.033395931, -0.53318369, -0.13987049, -0.41516426, -0.29805889,
                               0.32741718, -0.0094635258, 0.048858163, -0.14740853, 0.18010945, -0.33906646, 0.5507152, 0.14471482, -0.018280232, 0.17660161,
                               0.30692029, 0.10400357, -0.049893081, 0.23727817, 0.184738, 0.14003589, -0.069292327, -0.2219817, 0.29679069, -0.083483859,
                               0.042994742, -0.30249985, -0.63114635, -0.15020929, 0.23254158, 0.33507406, 0.31178087, 0.45204675, -0.34394941, 0.12089362,
                               0.013877467, 0.16087998, -0.34351027, -0.30445608, -0.14509424, -0.061078985, 0.56871089, -0.50276365, -0.02649338, -0.66194516,
                               -0.044753259, 0.28404912, 0.33203017, 0.59724344, -0.049991974, 0.18977952, 0.13658357, 0.75022727, 0.33844227, -0.26153682,
                               -0.25018006, 0.059705466, -0.063404599, 0.072090651, 0.035288834, -0.12897349, -0.28617683, 0.41501767, -0.2873645, -0.067903935,
                               0.056023284, 0.87260553, 0.1697862, 0.019705345, -0.3621637, 0.1043616, -0.68343314, -0.28077209, 0.13684546, 0.11633798,
                               0.55280805, -0.41954453, 0.16784369, -0.88150879, -0.27649628, -0.27650501, -0.22032038, -0.72031917, -0.72636375, -0.74738294,
                               -0.24221188, 0.6454904, 0.11508353, 0.22625531, 0.82163254, 0.1549542, 0.12804726, -0.061635724, -0.066034426, 0.22115058,
                               0.37551981, 0.24732071, -0.30600663, 0.58410752, -0.18134717, -0.03516597, 0.71338374, 0.58547501, 0.12736913, 0.075994936,
                               -0.82764023, 0.64504472, -0.30311932, -0.095773293, -0.58045936, -0.21497651, -0.10198525, 0.00045296466, 0.64743034, -0.39107718,
                               -0.54960471, 0.35521419, -1.1348219, -0.60066093, -0.3773868, -0.47421725, -0.46133182, 0.033657014, 0.32907183, 0.29703055,
                               1.3758829, 0.098507764, -0.11193806, 0.22308886, 0.2653614, 0.0024843779, 0.043697747, 1.2194268, -0.35482618, -0.84942715,
                               -0.92524034, 0.12971583, 0.65094205, 0.68239119, -0.059620888, 0.228919, -0.52713234, -0.10938838, 0.35831905, -0.41468256,
                               -0.25578406, -0.013334655, 0.40267521, -0.33987627, -0.026035575, -0.39071465, -0.071611279, 0.35571506, -0.17913753, -0.18303288,
                               0.85992384, -0.35255703, -0.3192366, -0.3386208, -0.14137284, -0.068262181, -0.3939306, -0.3117228, 0.16454973, -0.030830959,
                               0.16678112, 0.72343458, 0.43385998, 0.13066516, 1.6316883, 0.05211787, -0.45976507, -0.011862066, 0.42444624, 1.0522577,
                               -0.15468064, 0.65259433, -0.13350904, 0.28847217, 0.32445707, -0.099804501, -0.22620106, 1.3776327, -0.17198637, 0.060797211,
                               0.014739804, 0.21281079, -0.038858065, -0.41595844, -0.29995273, -0.1744782, 0.091159417, 0.41507175, -0.31220145, -0.16291649,
                               0.26938021, 0.52382064, -0.0063328211, -0.63054155, 0.076792607, 0.82169208, 0.18470579, -0.10799599, 0.29743992, -0.18040626,
                               -0.49046816, -0.25282278, 0.054992417, -0.1494466, -0.019157766, 0.63685356, 0.036525109, 0.57729848, 0.56151429, 0.65893348,
                               0.24268974, -0.17152349, -0.15960572, 0.22511492, 0.67693482, -0.11664971, 0.015369419, 0.14877634, 0.15703096, 0.12228385,
                               0.14341056, 0.10177463, 0.27451144, -0.35248745, -0.38356266, -0.13191555, -0.58568838, -0.48457681, -0.30844731, -0.014293538,
                               -0.072353718, -0.43820734, 0.36266227, -0.12019018, 0.35695546, -0.12991861, -0.055767254, -0.58654224, -0.61062419, -0.10173911,
                               0.60264776, -0.53716672, 0.48391209, -0.14235125, 0.31003732, -0.0097813839, -0.11584, 0.13778406, 0.32495154, 1.0127448,
                               0.34991086, -0.21864156, 0.15886885, 0.043084981, 0.44220405, -0.21053689, -0.93485453, -0.094016809, 0.13321344, 0.247251,
                               0.051234318, 0.22286516, 0.099070936, 0.23696824, -0.038586629, -0.32952478, 0.0048805284, 0.089350557, -0.94616796, 0.0525141,
                               -0.17267313, -0.091027833, 0.11155751, -0.68302225, -0.77262061, -0.15713846, -0.10475279, 0.35370921, -0.020767097, 0.33878407,
                               0.17825143, 0.43890695, -0.24812032, -0.83503906, -0.203713, 0.27308395, 0.20587852, -0.21144546, -0.11456355, 0.50226321,
                               -0.045327699, 0.91140042, 0.18187387, 0.17034407, 0.097894285, 0.094557451, -0.088478926, 0.066861285, -0.22765106, 0.45893223,
                               -0.8570192, -0.88907756, -0.54888152, -0.59103094, -0.11169218, -0.89580182, -0.36924255, -0.034201874, -0.38864857, -0.60622776,
                               -0.045371408, 0.37564376, 0.68539897, 0.11787077, 0.48695574, 0.34789896, 0.11841822, -0.21807786, -0.03067148, -0.31228424,
                               0.014592115, -0.013501919, -0.86901746, -0.46909422, -0.016746085, 0.32591477, -0.43795239, 0.65967743, -0.34635774, -0.026894981,
                               0.015925877, -0.0048443397, -0.073095478, -0.026250459, 0.21045759, -0.11239514, -0.25976404, -0.3124846, -0.10461965, 0.3627993,
                               -0.31874482, -0.50783114, -0.65998156, 0.083040887, -0.37975309, 0.71111274, -0.0089835404, 0.029251056, 0.078199679, 0.87597437,
                               0.34881799, 0.63331716, 0.33716155, 0.1161469, 0.7882516, -0.1133655, 0.067319908, 0.5376473, 0.40955127, 0.10223234,
                               0.014509748, 0.60208029, -0.47776505, -0.82938752, -1.0909658, -0.29038042, 0.33061781, 0.31544108, -0.61348541, 0.0002985102,
                               0.74424531, 0.45441089, 0.96996271, 0.00054653673, -0.079753344, 0.025456924, 0.22275164, -0.24784119, -0.15001596, 0.31786961,
                               -0.60474146, -0.049932884, -1.5781071, -0.26296532, 0.62319931, 0.15520425, -1.3955349, -1.1485591, 0.36094454, -0.072531912,
                               -0.22980211, -0.53564795, 0.17080693, 0.83174826, 1.3421658, 1.6411257, 0.32909932, -0.17275245, -0.99017124, -0.44070336,
                               -0.83167989, -0.34110779, 0.25724384, 0.29957934, -0.62463476, -0.67180877, -1.1271003, -0.64980994, -0.4983049, 2.0116913,
                               -0.50013816, -0.28210486, 0.85598823, 1.0966717, 0.79345439, -0.77922483, -0.30421427, 0.21286561, -0.14796292, -0.39605305,
                               -0.025323658, 0.65696561, 0.019266626, 0.22651038, -0.19254492, -0.36613095, -0.21561329, -0.53229399, -0.26053777, 0.97262299,
                               0.35504077, -0.090942509, -0.19988847, 0.077520653, 0.61894181, 0.27646508, 0.40141914, -0.38618042, -0.21723591, -0.17706203,
                               -0.96229127, 0.051894153, -0.63372245, 0.21694724, 0.89489853, 0.54839165, -0.046371901, 0.16731782, 0.58029745, 0.087744612,
                               0.24249179, -0.26837591, -0.24272501, 0.035886623, 0.52392663, 0.058845735, -1.0845984, 0.51635745, -0.47795139, 0.59051702,
                               -0.2005776, 0.17676154, -0.012202415, -0.023625446, 0.025566882, 0.66661956, 1.2935999, -0.32575942, 0.50153066, 0.050115262,
                               0.77348187, -0.18927458, -0.42908731, -0.21161681, 0.23165035, -0.74217233, -0.21132895, -0.71893561, -0.19957435, -0.2274652,
                               0.63387837, 0.73363725, 0.10679337, -0.55133624, 0.58223935, -0.6384966, 0.34738813, -0.60998679, -0.28699315, -0.11534055,
                               0.68347736, -0.022811468, -1.3229593, -0.23133398, 0.087017791, 0.38823341, 0.34163713, 0.87202521, 0.027264708, -0.13028576,
                               0.31066988, 0.67176936, -0.36571248, 0.44418368, -0.019120731, 0.31800249, 1.003024, -0.73039754, -0.49667857, -0.20070616,
                               0.33755441, 0.13454191, -0.35879202, 0.23325429, -0.63149663, 0.302584, 0.18176165, 1.1938047, -0.12497748, -1.0624344,
                               -0.19078599, 0.1862293, 0.14859016, -0.67770293, -0.77833765, -1.911477, 0.38718608, -0.11988479, -0.96416078, -0.063418537,
                               0.75917227, 0.40499055, 0.029613767, 0.60115781, -0.64374291, -0.59081756, -0.4904651, -0.17655655, 0.045076778, -0.58879058,
                               -0.074868584, 0.081724312, 0.46791829, 0.16466218, 0.49585977, 0.16528102, 0.37167873, -0.22945766, -0.1264421, -0.029531562,
                               -0.89686331, -0.62347289, -2.4268018, -0.01424242, -0.32611546, -1.1925224, -0.68705993, 0.22528607, 0.17581351, -0.20220045,
                               -0.18241692, 0.22536388, 1.1176706, 0.39275867, 0.68822919, 0.35393248, 0.60063468, 0.50301975, 0.24237478, 0.18157667,
                               0.24588363, -0.16566846, 0.078187455, 0.44684845, -0.15960101, -0.11152883, -0.2834022, 0.18850069, 0.023242889, 1.0984505,
                               0.38217468, 0.020539837, -0.077159584, 0.21591556, 0.10404353, 0.18343741, -0.49557017, -0.46690336, -0.47202914, 0.12574662,
                               0.26147102, -0.097275534, -0.23271469, 0.20637205, 0.39421207, -1.3133402, -1.5088835, 0.18421546, -0.84744531, -0.35977259,
                               -0.60695294, -0.55245042, 0.45341813, 0.38373518, 0.70689414, 0.78488973, 0.72093267, 0.54129997, 0.14254234, 0.2568455,
                               0.48400675, 0.33521513, -0.10720111, 0.20385017, 0.1140265, 0.68226341, -0.68514074, -0.13812007, 0.16279751, -0.43146572,
                               -0.92939256, -1.0514018, -0.95173472, -0.68378932, 0.97051538, 0.047986077, -0.34993498, -0.68754578, -0.7497209, 0.21797711,
                               0.22770851, -0.51409883, 0.7837671, 0.30625717, -0.20012671, -0.76308638, -1.481861, -2.2579088, -1.5233912, -0.056718738
};
*/
