double unscaled_weight[756] = {
                               -0.27702861, 0.60882872, 0.77489772, -0.57971451, 1.1351337, -0.61708925, -0.037168136,
                               0.53348561, 0.65899799, -0.2304792, 0.15729401, -0.38586537, 1.0745021, 0.37144029,
                               0.26018033, -0.050108985, 0.50318494, 0.19848787, -0.81186583, 0.090699661, -0.69320837,
                               0.3581912, -0.22366082, -0.00046446369, 0.020652174, 0.066666796, 0.72009897, -0.11970606,
                               0.16936678, 0.49433372, -0.41093125, -0.25566695, 0.41232198, -0.22603478, -0.30878159,
                               0.5752175, 0.025700067, 0.55524942, -0.14299036, 1.1606084, 0.65674398, 0.26819078,
                               -0.62530728, 0.047398622, -0.1328025, -0.96653118, -0.99550293, 0.029158756, 0.60217548,
                               0.1142082, 0.15795023, 0.5264729, 0.58868957, 0.74495914, -0.21356984, 0.18473744,
                               0.78924964, -0.4198517, -0.26577343, 0.23037056, -0.22418226, -0.4438898, 0.46172914,
                               -0.21188348, -0.024238361, 0.5134554, -0.023279752, 0.36486243, 0.97045258, 0.22966675,
                               -0.098204999, 0.26555553, -0.86914489, -0.68238714, 0.026812079, 0.41011881, 0.057557923,
                               0.26800468, 0.24119578, 0.3414049, 0.6902127, -0.28180391, -0.55422329, 0.37444749,
                               0.10904583, -0.46401356, 0.49501922, -0.22026527, -0.79844701, 0.24561922, -0.31483978,
                               -0.20492422, 0.38120321, -0.0136952, 0.13366862, 0.82982646, 0.19849744, -0.43043436,
                               0.28016748, 0.38495892, -0.055314627, 0.37917025, -0.12441661, 0.24382124, 0.48965262,
                               0.31991869, -0.080944209, 0.42775918, -0.24671259, -0.012490305, 0.59119726, 0.54870899,
                               -0.14582407, 0.43749451, -0.1957042, -0.47959878, 0.7652754, -0.77971012, 0.068167356,
                               0.22010137, -0.28520843, 0.12596349, 0.43234721, -0.18261237, -0.91296345, 0.59792026,
                               0.52231893, 0.10873035, 0.23189917, 0.33637669, 0.18480004, 0.37732502, 0.20249588,
                               -0.0086822237, 0.42405191, 0.14519455, 0.58410151, -0.48353986, 0.33736452, 0.15643579,
                               0.56669449, 0.30621269, 0.11954056, 0.35308405, -0.41700489, 0.43662467, 0.01164503,
                               -0.79628251, 0.20602757, 0.73133087, -0.21961537, -0.84576873, 0.71220664, 0.016172465,
                               0.080416432, -0.0014595037, 0.38547646, 0.50455541, -0.070570844, 0.92615698, -0.40507349,
                               0.57797506, 0.28772145, 1.1379891, -0.16899795, 0.26234811, -0.047884443, 0.31540193,
                               -0.09030899, -0.1386055, 0.061466535, 0.30002874, 0.3748508, 1.0799594, -0.178928,
                               0.28508135, 0.31442179, 0.69212965, -0.34006707, -0.086685334, -0.27969151, -0.20775641,
                               -0.11083242, 0.21389093, 0.46324219, -0.51753321, 0.51174946, -0.47594278, 0.56434511,
                               -0.76210136, -0.55888976, -0.73619471, 0.088034475, -0.75506386, -0.23101256, -0.19797806,
                               -0.3629989, 0.10285923, 0.22232903, 0.19699354, 1.1235911, 0.04239838, 0.18618405,
                               0.20667088, 0.22342196, -0.17847417, -0.084844314, 0.82994545, 0.86637083, 0.79220726,
                               0.34035208, 0.87545105, 0.69480061, 0.96528777, 0.51438682, 0.57698045, -0.84012493,
                               -0.39109452, -0.49328681, 0.075806932, -1.0200621, -0.37038699, -0.13468987, -0.3954281,
                               -0.095477797, -2.6873869, 1.3384302, 0.42602405, 0.19305884, 0.059088147, 0.51419599,
                               -0.026306977, -0.59619403, 0.21839868, 0.51190524, 0.86711813, 1.0035063, 0.65906713,
                               0.8361062, 0.33776363, 0.86298273, 0.478098, 0.71702999, 0.55562994, -0.42534472,
                               -0.1631459, -0.6406547, 0.20347042, 0.69544903, 1.7594445, 0.27672169, 0.41676805,
                               -0.026565011, 0.8750027, 0.21319598, 0.45462325, -0.17950526, -0.18613147, -0.53005273,
                               -0.52325662, 0.68785114, 0.063024414, 0.64865514, 1.022538, -0.40963255, -0.077097115,
                               0.17893047, -0.052994053, -0.46129413, 0.51845943, 0.23440801, -0.15624654, -0.0067885032,
                               0.11268131, 0.97924908, 0.17584953, 0.51239629, 0.74171771, 0.09752271, 0.20597678,
                               0.39502654, 0.40717249, 0.16875216, -0.3626527, -0.079479627, 0.60823399, -0.1211186,
                               0.36074692, -0.081084726, 0.21061735, 0.53397405, -0.70642196, -0.19027283, 0.40136058,
                               -0.15184119, -0.45998149, 0.33319134, 0.32961565, -0.11731105, 0.14184209, -0.61769355,
                               0.74055756, 0.98278503, 0.41457567, -0.25431528, 0.16394702, 0.20218627, 0.089478814,
                               -0.16113657, -0.34105227, -0.23109162, 0.23156054, 0.61959063, 0.076230109, 0.09632748,
                               -0.24881096, -0.20862664, 0.039224784, 0.54311276, -0.033572687, 0.055324484, -0.19684684,
                               -0.40374573, 0.27092075, 0.375982, -0.072703436, 0.36800475, -0.34038849, 0.70672804,
                               1.2860142, 0.65728211, -0.42856792, 0.025150893, 0.63502534, 0.1422673, 0.49842448,
                               -0.38521487, 0.30287861, 0.44065762, 0.28560239, -0.011097929, 0.46351148, -1.0033978,
                               -0.82056151, -0.77426304, 0.060839325, 0.069293353, 0.34755052, 0.56671999, 0.34718724,
                               0.45202454, -0.25124857, -0.30847623, 0.47957693, -0.35061047, 0.21305469, -0.14469981,
                               0.33012084, -0.31366777, 0.1174494, 0.90244197, 0.26415254, 0.26486262, 0.21520949,
                               0.52106953, 0.89206695, 0.7112813, 0.23528755, 0.27022265, 0.37931878, 0.96805914,
                               -0.57568438, 0.15180537, 0.32653507, 0.59538149, 0.34913614, 0.0013011896, 0.22434735,
                               -0.25821259, -0.39824002, 1.0617368, -0.0052754369, 0.16161773, 0.22708221, 0.5766827,
                               -0.047858989, 0.06390307, -0.44883223, 0.81818747, 0.0087344773, 0.29438361, 0.26548172,
                               -0.80206375, -0.17507186, 0.19135255, 0.77115767, 0.14376092, 1.3076891, -0.22560989,
                               0.03874272, 0.33688028, 0.024086497, -0.11127855, 0.015224355, -0.059854957, 0.74046974,
                               0.050317658, 0.71731345, -0.35621582, 0.88144578, 0.34302006, 0.49848935, -0.08149386,
                               -0.18364422, -0.61092334, -0.039563839, -0.64805246, -0.73209886, -0.1612037, -0.1824376,
                               -0.10095392, -0.54863707, -0.13006024, 0.84035913, -0.1074547, 0.095771397, 0.065293077,
                               0.50295166, 0.76087729, -0.05915887, 0.0038541875, 0.17693993, -0.10783917, -1.395354,
                               -0.18819719, -0.91640697, 0.10561303, -0.87915558, -1.2311914, -0.8063915, -0.53489989,
                               0.40550872, 0.31034574, 0.13466076, 0.15388423, 0.42449091, -0.62185287, -0.1069148,
                               -0.24735412, 0.091001952, 0.078088304, -1.4804614, -0.47730564, -0.85410218, -0.73027194,
                               0.28144448, -0.7827631, -1.0725579, -0.87395905, 0.019227432, -0.36397524, 0.039364162,
                               -1.189656, 0.42376989, 0.029999473, 0.97409512, 0.28772906, 0.11587147, 0.20056804,
                               -0.26722339, -0.42421664, -0.38231162, 0.48156817, -0.16695242, 0.43342902, -0.28646052,
                               -0.034916129, 0.25049893, -1.0733647, -0.48631756, -0.49391604, -0.50135032, -0.040424458,
                               1.0258481, -0.62519932, 0.21244732, 0.33072464, 0.013948886, 0.57503137, -0.71442171,
                               0.32876287, -0.52405946, 0.26531818, -0.032614129, -0.049290842, 0.29821244, 0.55137431,
                               -0.081307618, -2.3686619, -0.86137179, -0.98107756, -0.97629564, -0.40670394, -0.8485431,
                               0.6214841, -0.26896073, -0.1465191, 0.079095399, 1.5062982, 0.084564116, 0.20235011,
                               0.37424373, 0.029640964, 0.16488969, -0.060275283, -0.0043007629, -0.16993278, -0.37384607,
                               0.12352943, 0.85481896, -0.035967501, -0.053911601, -0.40461548, -0.9585113, -0.30067559,
                               1.140472, -0.49255279, 0.38920071, 1.8597437, -0.19081892, -0.29259476, -0.23485883,
                               0.10457873, 1.5402637, -0.12268229, 0.67514796, -0.45597952, 0.53631412, -0.25938066,
                               0.11603961, -0.16532986, -0.28776586, -0.30216771, -0.13983241, -0.23488818, 0.26841173,
                               0.67579952, 0.2075759, 0.10079492, 0.2883067, -0.076254561, -0.056714445, -0.12717646,
                               -0.25804559, 0.10767514, 0.094400795, -0.58775883, 0.35738747, 0.30955558, 0.11727025,
                               1.5156538, -0.33047703, 0.9563396, -0.36071855, 0.71598153, -0.0018377865, 0.26591552,
                               0.21674342, 0.059564024, 0.070069545, -0.79517899, 0.36173561, -0.98804456, 0.023132508,
                               -0.37981175, 0.6817025, 0.064290062, -0.032293471, -0.091723149, 0.16920939, 0.39532108,
                               0.92078631, 1.3558296, 0.28348178, 0.86695562, 0.26121262, 0.4401242, 0.99947631,
                               -0.15200249, 0.75073983, 0.15087219, 0.44446802, -0.48152652, 0.23903341, 0.44827476,
                               0.63191367, 0.73132405, -0.15659082, 0.52343435, -0.39743259, 0.80255174, 0.085470138,
                               0.36742239, -0.083730254, -0.49241272, -0.11393205, 0.79072976, 0.3507508, -0.77723122,
                               0.63394345, -0.87268678, 0.61178516, 0.34102065, 0.39300976, 1.2152561, -0.010222636,
                               1.0280432, 0.51924918, 0.80043923, -0.075764857, 0.4653466, -0.028802604, 1.5028069,
                               0.13099841, 0.42172255, 0.69861489, 0.18687582, 0.34924764, 0.32517003, 0.68760069,
                               0.076066524, -0.11743453, 0.41831777, 1.3341999, 0.19940946, -0.10386014, 0.96476401,
                               -0.52698667, 0.41861975, -0.59498568, -0.22380025, -1.7230965, -0.16611817, 0.40480869,
                               -0.52719617, 0.09220452, 0.73069318, 1.077759, -0.13308773, 0.95736562, -0.1212927,
                               -0.28634779, 0.40505793, 0.46279891, 0.30133646, 0.18380982, 0.32466724, 1.297843,
                               0.48267698, 0.95107169, 0.94341752, 1.2225781, 0.63840273, 0.4601062, 0.37791788,
                               0.64735413, -0.12596486, -0.1281331, -1.9312925, -0.26744321, 0.12684679, -0.099555644,
                               0.26884079, 0.31270983, 0.66459285, 0.4119147, 0.31075679, 1.5324757, 1.1849294,
                               0.23011497, 0.39824328, -0.029211714, 0.33448819, 0.74007796, 0.36431529, -0.76619006,
                               0.19175927, 0.21671878, 0.29059059, 0.13743621, -0.018456065, -0.29732754, 0.29029415,
                               0.63100797, 0.22476678, 0.80325931, -0.15971009, 1.548191, 0.38844737, 1.0856287,
                               1.0905757, 1.0661546, 0.18293959, 0.16563473, 1.2804299, 0.48590165, -0.72035689,
                               0.23467517, -0.42360673, -0.77477641, -0.075293888, -0.71484734, -1.4952735, 0.1655765,
                               0.36127044, 0.054662283, -0.5566214, 0.32951196, 0.36611205, 0.2143739, 0.68814351,
                               0.33994408, 0.98631133, 0.20109481, 1.0035688, -0.14433747, 0.56124644, 0.62519471,
                               0.8047775, 0.62384013, 1.2266169, 0.5431755, -1.4693138, -0.080789101, -0.47382196,
                               -0.68793498, -0.20996721, 0.12546701, -0.30741481, -0.97833445, 0.64061856, 0.45745884,
                               -0.27755774, -0.85114379, -0.11401231, -0.58619251, -0.10015404, -0.51423913, 0.012935767,
                               1.4442867, -0.14993207, -1.356337, -0.21873557, -1.7991753, -1.2349689, -0.6561743
};
double unscaled_bias = -14.786592;
