double unscaled_weight[1140] = {
                               -0.060135617, -0.0057954398, 0.045693831, 0.016413542, -0.058851423, 0.041404777, 0.095144363, 0.026578408, -0.087437889, -0.067619527,
                               -0.024569344, -0.06627456, 0.2208882, -0.11555182, -0.11210355, 0.012134506, 0.0073816193, 0.02014449, 0.013669401, -0.034089829,
                               0.018874543, -0.16775158, -0.061615645, -0.0094228159, 0.014176663, -0.020922399, -0.0002247474, -0.15501695, 0.034271714, -0.020733171,
                               -0.075410699, -0.031585536, 0.0027388054, 0.24269586, -0.052392697, -0.063675106, 0.022049254, -0.094687538, 0.0081115005, -0.020468343,
                               0.0094195257, 0.13601282, -0.087035301, 0.26586309, 0.10081141, -0.089664147, -0.081292588, 0.094105199, -0.098959813, 0.012429139,
                               -0.11499898, 0.30675831, -0.38633805, -0.087812077, -0.15027921, -0.17136537, -0.0061138071, 0.019405064, -0.33082818, 0.028331688,
                               0.090760739, -0.085195202, -0.075823232, -0.074736315, -0.089295404, 0.10387837, -0.065125323, 0.13618468, 0.14969925, -0.030108807,
                               0.053016641, 0.062173862, 0.025986987, -0.07308242, -0.032996054, 0.44607121, -0.30489175, -0.14105135, 0.017821448, -0.47546276,
                               0.11685057, 0.040354345, -0.21530378, 0.097384141, 0.16632161, -0.12007745, 0.006137299, -0.067712798, -0.048504531, 0.22217895,
                               0.049767602, 0.26928249, 0.33303365, 0.027215983, 0.012851815, 0.011090834, 0.18718466, 0.11326366, -0.074230666, 0.019707286,
                               -0.34903343, -0.13006236, 0.026575514, -0.46369279, -0.12458107, 0.20798129, -0.10197877, 0.0026801587, 0.050638248, -0.072497724,
                               0.041808197, 0.012400063, -0.069311902, 0.15147505, 0.017371309, 0.31829167, 0.28718122, -0.048210545, -0.0072576521, 0.012216123,
                               -0.022380964, 0.066214183, 0.003424697, 0.10587493, -0.32617923, -0.14700754, -0.018866309, -0.28001023, -0.079662353, 0.17034666,
                               -0.0076032748, 0.082642996, 0.12740345, 0.084443232, 0.061418434, -0.061118061, -0.041095958, 0.069190215, 0.0067587872, 0.08600845,
                               0.21424869, 0.12094091, -0.081178912, -0.031897812, 0.072095734, 0.10119302, -0.062292027, -0.03319446, -0.22837144, -0.051515788,
                               0.076026888, -0.23622804, 0.07048171, 0.018197457, -0.17569889, 0.2456675, -0.068465514, 0.14577799, 0.22237007, 0.10034971,
                               0.076866278, 0.091166362, 0.04315965, 0.025400063, 0.095350066, 0.099975616, -0.081606623, -0.035478411, 0.2069061, -0.018539502,
                               0.070563727, 0.29284157, -0.082546928, 0.10632353, 0.16980832, -0.16099992, -0.0048784595, -0.0095195711, 0.066546515, -0.031592207,
                               0.088973383, -0.11510229, 0.026395684, 0.15694182, -0.039984733, 0.052622537, 0.051549395, -0.038927671, 0.082586441, 0.26376159,
                               -0.099207183, 0.0089791167, 0.071718994, 0.064503939, 0.049915915, 0.055734367, 0.058150857, 0.064533208, -0.073816283, -0.055448193,
                               -0.07229727, -0.035064126, -0.047196167, -0.028713163, -0.042975881, -0.065431776, -0.084916735, -0.017618273, -0.034819028, 0.048360994,
                               -0.097129977, -0.11122496, 0.041568736, -0.079507798, -0.069853619, 0.013194104, 0.042868621, 0.040634134, -0.018644412, -0.0039340655,
                               0.021400148, -0.0079983548, 0.028292341, 0.0056756612, 0.016937914, -0.023523476, -0.070046004, -0.077116125, 0.074123942, -0.024569983,
                               0.05172077, 0.044054233, -0.0059379858, 0.18340005, -0.24203939, -0.24768132, 0.14076899, -0.071780535, -0.09996613, 0.15101906,
                               -0.11041869, -0.09815847, -0.077346101, -0.046618739, -0.067633451, 0.080608553, -0.070320048, -0.03893961, 0.086197884, 0.053513054,
                               -0.044465559, 0.071199187, -0.18226779, -0.33370621, 0.0019465214, 0.0077182065, -0.075175455, 0.20019577, -0.070052181, -0.077025977,
                               0.20142407, -0.049255343, -0.080671093, 0.078112826, -0.048614712, -0.025710276, 0.034636939, -0.097567002, -0.12218862, 0.13725474,
                               0.095986339, 0.073690979, 0.32334103, 0.077334259, -0.034708884, 0.17198275, 0.056617119, -0.24650847, 0.059405688, 0.080569042,
                               -0.023552449, 0.3157757, -0.049622295, -0.04694741, 0.41691862, -0.085572701, -0.096671728, 0.060310682, -0.072593932, -0.096998959,
                               -0.062874926, -0.1035657, -0.11729924, 0.087523887, -0.10569357, -0.12462082, 0.010957146, 0.031505559, -0.17373285, 0.0050550884,
                               0.03361039, -0.3404327, 0.029395012, 0.089217806, -0.060157034, 0.21102903, -0.039471127, -0.061019776, 0.35085927, -0.058006675,
                               -0.11456846, 0.051004388, 0.022822894, -0.023201339, -0.0068807958, -0.08735551, -0.088614547, -0.046650871, -0.051226604, -0.13139576,
                               -0.089534008, 0.028357528, -0.15173333, 0.028837835, -0.20314345, -0.50544272, 0.054633277, -0.0055018313, -0.15247298, 0.078817873,
                               0.029866847, -0.063360154, 0.23003345, 0.00078410297, -0.060846131, 0.0028142183, -0.036997184, -0.094242207, -0.084144355, 0.037710992,
                               -0.016576658, -0.10779956, 0.14839454, 0.012394632, 0.05448209, 0.25556456, 0.095196168, 0.20576199, 0.015041904, -0.12703546,
                               0.16729519, -0.075982298, -0.24046561, 0.067984485, 0.037242005, -0.05703905, 0.1019084, -0.060293562, -0.13187027, -0.020311943,
                               0.080877661, 0.041762805, 0.012762562, 0.12903533, 0.08106361, 0.066770251, 0.073078431, 0.0056474465, -0.040541959, -0.0054410243,
                               -0.033948896, -0.049546994, -0.00022436104, -0.075669782, 0.0083089351, -0.060536387, -0.16373889, 0.063258835, 0.015281203, -0.064744215,
                               0.064432176, -0.03306017, -0.090470313, -0.0037354867, -0.35628605, -0.31723602, 0.11909434, 0.26828443, -0.00078841494, -0.38156945,
                               -0.49419935, -0.88879534, 0.45275036, 0.047676167, 0.63220562, -0.14846863, 0.32486898, 0.027885187, 0.94127472, -0.33675227,
                               0.064137457, 0.58508165, -0.32647172, -0.24829488, 0.26972277, -0.69145909, -0.25876666, 0.69509991, 0.4037626, -0.6370146,
                               0.98162768, -0.025106112, -0.18832362, 0.1672017, -0.035666887, 0.27526755, 0.98384672, -0.50747695, -0.003760215, 0.45541522,
                               -0.5585181, 0.25701913, -0.16183018, 0.10374813, -0.087122587, 0.40343766, -0.36883378, -0.081259759, 0.95012746, -0.72364728,
                               -0.87658884, 0.62984685, 0.23406394, -0.40177671, -0.18915054, 0.11823205, -0.13497879, 0.46497862, -0.192562, 0.13649086,
                               0.47857159, -0.57159943, -0.1556469, -0.52531559, -1.1442471, -0.39161618, -0.11208798, 0.79157913, 0.034546319, 0.14706447,
                               0.24867948, 0.26378595, 0.19061987, 0.97217715, 0.086423045, 0.4042792, -0.59510323, -1.2386396, 0.36873645, 0.6490909,
                               -0.20647917, 0.24350999, 0.69333016, 0.19490234, 1.1449012, -0.38053561, 0.46310943, 0.91551664, -0.069686592, -0.59808565,
                               -0.46342137, 0.158642, -0.39723732, -0.47622094, -0.19930833, -0.14492569, 0.11454941, 0.011674376, -0.1861944, 0.064081006,
                               0.53241694, -0.0054759592, 0.15043603, 0.17323742, -0.083523774, -0.25824045, -0.55869312, 0.13993466, 1.0391054, 0.20708796,
                               0.018232401, 0.17974352, -0.56099621, -0.0091533217, 0.79787385, 0.10424282, -0.44138978, 0.078206729, 0.29721484, -0.064392584,
                               0.13553823, 0.26650536, 0.040570009, -0.13694993, 0.75585689, -0.32148036, -0.0052724929, 0.23556664, -0.23043319, -0.12166779,
                               0.32672508, -0.043271061, -0.24523792, -0.09085898, 0.3088755, 0.84012745, -0.13213067, -0.17679964, 0.076349265, -0.03634353,
                               -0.27169228, -0.40541379, -0.26494376, -0.11884931, 0.2185186, 0.39512794, 0.072717117, 0.43627201, -0.28414061, -0.086069092,
                               0.1110596, 0.84718159, -0.32000967, -0.99566885, -0.0441068, -0.24436503, 0.33564579, -0.16491565, 0.1020262, -0.80421341,
                               0.031782211, 0.25180233, 0.47267213, 1.1721252, -0.06532109, 0.31437444, 0.41546063, 0.55608725, 0.1837418, 0.24635306,
                               -0.42262117, 0.066454046, -0.021011395, -0.05352981, 0.055685919, -0.17689983, -0.21368124, 0.37897596, -0.62666347, -0.15387333,
                               0.03660154, 0.89552889, 0.30703572, 0.0054022621, -0.18443497, 0.1856669, -1.0001259, -0.55264684, 0.022059506, 0.41295707,
                               1.5034193, -0.73607218, 0.18666054, -0.83123966, -0.030461499, -0.014661977, 0.060309653, -0.48469268, -0.64976144, -0.16205418,
                               -0.31389536, 0.31808545, 0.1950983, 0.39640251, 0.77843246, -0.079123361, 0.11800785, -0.035723147, -0.077139098, 0.25816343,
                               0.32354955, 0.32889905, -0.29439932, 0.35570851, -0.33424168, -0.026530224, 0.6755207, 0.45843613, -0.15789671, 0.1658087,
                               -1.1017868, 0.89650351, -0.22954675, -0.24350046, -0.37779956, -0.54273152, 0.081709816, -0.24776463, 0.27432617, -1.365597,
                               -0.54966142, -0.26263329, -1.4774131, -0.21450403, -0.87087689, -0.053930217, -0.78178804, 1.299377, 0.17615701, -0.069472118,
                               1.1904555, -0.050161087, -0.0036415223, 0.19373445, 0.16175336, -0.044959099, 0.024744358, 0.98055107, -0.50911825, -0.48670208,
                               -1.3667961, 0.35244499, 0.67547635, 0.65431733, -0.037364327, -0.038149865, -0.55923397, 0.12196405, 0.14219757, -0.12418675,
                               -0.4567762, 1.8185091, 0.23359701, -0.53531694, 0.63030772, -0.29743613, 0.26412697, 0.56982846, -0.63559352, -0.39737215,
                               0.22325785, -0.74040839, -0.65804861, -0.31517078, -0.23894115, 0.020620429, -0.042327487, -0.062556244, 0.0066368059, 0.19282915,
                               0.22607052, 0.93131532, 0.45099527, 0.13267173, 2.1787398, 0.065072117, -0.24562835, -0.17747741, 0.62439932, 1.0975483,
                               -0.018493087, 0.38702695, -0.40011818, 0.23143872, 0.44158637, -0.61500341, -0.27611845, 1.2966113, -0.1939877, -0.1117886,
                               -0.011483012, 0.19559564, -0.17646146, -0.13520051, -0.23098717, -0.1324596, 0.011399135, 0.62604599, -0.37839075, -0.25730446,
                               0.35907056, 0.56515773, 0.29494222, -0.0076186182, 0.12654192, 0.84036363, -0.028360462, -0.1870663, 0.27303282, 0.21514311,
                               -0.2303612, -0.36606286, 0.38862597, -0.13700299, 0.25711256, 0.51367461, -0.43655661, 0.73049667, 0.33891319, 0.31605389,
                               0.32908352, -0.46599634, -0.21892778, 0.21154124, 0.94270983, -0.10265328, -0.18497555, 0.16611285, 0.017939857, 0.10120931,
                               -0.14908316, 0.097154704, 0.57311627, -0.66707884, -0.49862741, -0.13404251, -0.19257854, -0.14827768, -0.53525397, 0.4888086,
                               0.033704089, 0.22076222, 0.30930584, -0.088527393, 0.47273434, -0.26233062, 0.042947313, -0.78235855, -0.38148974, -0.068184797,
                               0.40592323, -0.65737194, 0.18576291, 0.16061569, 0.31900274, -0.15451525, -0.10052602, -0.015456316, 0.44983382, 1.4612943,
                               0.17578508, -0.17981669, 0.10287496, 0.058901074, 0.19006627, 0.29506949, -0.46961307, -0.18971922, -0.054759415, 0.17778768,
                               -0.097020925, 0.44917938, 0.023700301, 0.26753414, 0.19427756, 0.17030396, -0.0088988566, 0.021900862, -1.3733445, -0.15965934,
                               -0.4627457, 0.086282055, 0.20288655, -0.86989341, -0.42176656, 0.096852924, -0.10501101, -0.068006894, -0.20324846, -0.091520928,
                               0.61018761, 0.24748878, -0.24401933, -0.4516992, -0.4193946, 0.32843033, 0.10515609, -0.21918803, -0.26802576, 0.5271809,
                               0.090310411, 1.0085832, -0.17618316, 0.0097166103, 0.09308949, 0.0098074179, -0.11954438, 0.17842319, 0.31071036, 0.63986373,
                               -1.0796895, -0.85036219, -0.39493146, -0.58460099, -0.45772657, -1.162359, -0.82454993, -0.20609036, -0.63906787, -0.95910345,
                               0.012708205, 0.41098276, 0.88266648, 0.28954448, 0.6737733, 0.67579923, 0.19998924, 0.015447355, 0.20091239, -0.72959952,
                               -0.086891327, 0.25655318, -0.20683647, -0.56227185, 0.025543171, 0.32266058, 0.084314556, 1.0032744, -0.046329233, -0.11432419,
                               -0.37443717, -0.20328957, -0.41479811, 0.17213616, -0.10023693, -0.30080046, -1.0583221, -0.56752432, -0.27048311, 0.45310139,
                               -0.18042397, -0.69442872, -0.68019183, 0.060848034, -0.40224798, 1.358583, -0.072071326, -0.067369866, 0.21870928, 0.72634729,
                               0.34179642, 0.44788299, 0.04873005, 0.015144522, 0.9077817, -0.14978403, -0.020191758, 0.026462054, 0.2216188, -0.18695989,
                               0.088706873, 0.42077891, -0.4191944, -0.8785035, -1.4882633, 0.21039137, 0.59521808, 0.42056525, -0.29475477, 0.33775373,
                               0.75214033, 0.24854402, 1.3904045, -0.30485415, -0.29491475, 0.1346705, -0.035948049, -0.30094726, -0.4800212, 0.42589988,
                               -0.2317294, -0.31854752, -1.5078233, -0.3382337, 0.30592648, 0.76163652, -1.1870473, -0.48522768, 0.22870649, -0.16309247,
                               -0.22528821, -0.042190452, 0.13708076, 1.055269, 1.1985923, 1.2824879, 0.52225023, -0.14709748, -1.1109281, -0.19255232,
                               -0.39334986, -0.26066996, 0.6598281, 0.44290436, 0.17800764, -0.38264229, -0.58305087, -0.73800375, -1.0014849, 1.034972,
                               -0.46158508, -0.12637337, 0.82976176, 0.64108275, 1.944417, -1.1193663, -0.10945977, 0.058455966, -0.63828672, -0.6673701,
                               -0.70730893, 0.20348789, 0.1012614, 0.13947098, 0.0332865, -0.36240611, -0.074024367, -0.34746846, -0.15733946, 1.2487439,
                               0.33747726, 0.24308943, -0.0057647031, 0.56555161, 0.67434167, 0.10088683, 0.8883937, -0.18731089, -0.2744646, 0.17609208,
                               -0.82984469, 0.70376197, -0.84186467, 0.38813648, 0.6185403, -0.061989287, -0.17076365, -0.25016817, 0.14651057, 0.15663918,
                               0.14477473, -0.37042581, -0.5727373, -0.22194095, 0.061461184, -0.042919164, -0.99564308, 0.76191547, -0.25164804, 0.62857499,
                               0.045846822, 0.096232792, -0.46860609, -0.0085367112, 0.019068989, 1.113625, 1.9706783, -0.16275578, 0.77381412, 0.062079073,
                               0.90192478, -0.29846436, -0.38175043, -0.11705119, -0.23472752, -0.95151094, -0.55648705, -0.24711977, -0.37847214, -0.65382812,
                               0.16015243, -0.017593383, -0.054238873, -0.4882071, 1.0528135, -0.28290995, 0.32789963, -0.31529872, -0.12969364, -0.74517397,
                               0.61871797, 0.028015511, -1.1753765, -0.80780098, -0.052342662, 0.57466979, 0.45031528, 1.1578884, 0.26048148, -0.0067441782,
                               0.32892812, 0.63737881, -0.13451255, 0.1872742, 0.10361034, 0.24119859, 0.93525243, -1.1309768, -0.061778545, 0.0020555274,
                               -0.090712462, -0.017604833, -0.91762442, 0.051235305, -0.22902313, 0.50147349, -0.64185563, 1.3593889, -0.050604172, -1.0527692,
                               -0.96829347, -0.070859199, 0.25759182, -0.83655189, -0.62944983, -2.3800076, 0.70422535, -0.10630678, -0.86673173, -0.014763052,
                               1.2635276, 0.25123897, 0.048214172, 0.17932358, -1.0315034, -0.40817134, -0.3252153, -0.13154578, 0.20412687, -0.93575768,
                               -0.2767996, 0.030497214, 0.85208179, 0.51234637, 1.088986, 0.27097953, 0.30552677, -0.19718352, -0.18311434, 0.34689242,
                               -1.0520858, -0.93125179, -2.9569899, 0.5248053, -0.25797235, -0.76633766, -0.38707186, 0.59839951, 0.045898331, -0.55004767,
                               -0.42547579, 0.63107999, 1.3677458, 0.23236951, 0.44788387, 0.46034632, 0.48762295, 0.30590682, -0.038059495, 0.41426364,
                               0.061508599, -0.16567374, -0.022857681, 0.41256005, 0.16467914, -0.15588478, 0.091723617, 0.21010443, 0.28991467, 1.3706905,
                               0.37200217, 0.059796672, -0.40075562, -0.10205151, 0.31096087, 0.49200834, -0.91923485, -0.98004874, -0.1930938, 0.61270648,
                               0.038662338, -0.41327564, -0.35870347, 0.04555703, 0.26374439, -1.2482992, -1.8092711, 0.12049751, -0.64772112, -0.23011708,
                               -0.99753729, -0.064456055, 0.37197866, 0.2737506, 0.61109388, 0.44618125, 0.57090875, 0.10161303, 0.08439814, 0.19360304,
                               0.0951574, 0.72928679, 0.26855731, 0.24202178, 0.86022675, 0.48056215, -0.25633564, -0.015808993, -0.49415717, -0.30119794,
                               -0.15255799, -0.14173975, -0.73347561, -0.51544755, 0.86042285, -0.1712932, -0.32820265, -0.99832144, -0.51673697, 0.091211012,
                               0.18406492, -0.95238815, 0.40699132, 0.2335278, -0.5641072, -0.79639213, -1.9764537, -3.2774365, -1.6896813, -0.23660068
};
double unscaled_bias = -1.9456217;